{"learner":{"attributes":{"scikit_learn":"{\"_estimator_type\": \"classifier\"}"},"feature_names":["has_decision_maker_phone","has_email","has_decision_maker_name","size_priority","normalized_rating","normalized_reviews"],"feature_types":["int","int","int","float","float","float"],"gradient_booster":{"model":{"gbtree_model_param":{"num_parallel_tree":"1","num_trees":"150"},"iteration_indptr":[0,1,2,3,4,5,6,7,8,9,10,11,12,13,14,15,16,17,18,19,20,21,22,23,24,25,26,27,28,29,30,31,32,33,34,35,36,37,38,39,40,41,42,43,44,45,46,47,48,49,50,51,52,53,54,55,56,57,58,59,60,61,62,63,64,65,66,67,68,69,70,71,72,73,74,75,76,77,78,79,80,81,82,83,84,85,86,87,88,89,90,91,92,93,94,95,96,97,98,99,100,101,102,103,104,105,106,107,108,109,110,111,112,113,114,115,116,117,118,119,120,121,122,123,124,125,126,127,128,129,130,131,132,133,134,135,136,137,138,139,140,141,142,143,144,145,146,147,148,149,150],"tree_info":[0,0,0,0,0,0,0,0,0,0,0,0,0,0,0,0,0,0,0,0,0,0,0,0,0,0,0,0,0,0,0,0,0,0,0,0,0,0,0,0,0,0,0,0,0,0,0,0,0,0,0,0,0,0,0,0,0,0,0,0,0,0,0,0,0,0,0,0,0,0,0,0,0,0,0,0,0,0,0,0,0,0,0,0,0,0,0,0,0,0,0,0,0,0,0,0,0,0,0,0,0,0,0,0,0,0,0,0,0,0,0,0,0,0,0,0,0,0,0,0,0,0,0,0,0,0,0,0,0,0,0,0,0,0,0,0,0,0,0,0,0,0,0,0,0,0,0,0,0,0],"trees":[{"base_weights":[-2.3264265E-2,-5.7611775E-1,2.06654E0,-1.0231574E0,2.5209372E0,9.486756E-1,2.5456543E0,-1.2603148E0,1.7085023E0,1.4420137E0,8.447517E-2,4.9292436E-1,8.378948E-2,1.5554559E0,8.456856E-2,-4.644955E-2,-7.6000965E-1,-8.027575E-1,8.4380284E-2,-4.5597807E-2,8.3934195E-2,-4.5881372E-2,1.0024804E0,8.511264E-1,2.5763032E0,-1.3076403E0,6.662063E-2,-1.4219217E0,2.4360463E-1,-6.1129306E-2,2.0176575E0,3.530275E-1,8.19299E-2,6.336811E-2,8.221169E-2,-1.5322957E0,-9.0189886E-1,-4.621155E-2,6.141502E-1,-4.4993453E-2,-2.4642907E-2,-1.251707E-1,4.2498478E-1,-6.9450104E-1,8.17352E-2,1.5591186E0,7.7182144E-2,-2.3852411E-1,1.0052992E0,-4.639282E-2,-3.9623473E-2,-4.6004206E-2,-6.791894E-1,8.216315E-2,1.0433404E0,3.5679424E-1,-4.602191E-1,8.004957E-1,2.9050323E-1,-3.5168685E-2,-2.278018E-1,1.289058E0,7.968771E-2,-2.8336523E-2,-9.010747E-2,6.6628057E-1,3.9514948E-2,-2.9800305E-2,-1.5612117E-2,-7.026899E-3,6.4430665E-3,2.3031775E-2,3.8374808E-2,1.4555302E-2,4.635926E-3,-1.7665016E-2,-2.0194675E-3,1.2125317E-2,3.171318E-2,-6.6900584E-3,1.6361205E-2,-1.6785443E-2,-2.4822517E-3,2.8923558E-2,4.89068E-2,-8.9408696E-4,-1.0723536E-2,2.6655223E-2,1.3493803E-2],"categories":[],"categories_nodes":[],"categories_segments":[],"categories_sizes":[],"default_left":[0,0,0,0,0,0,0,0,0,0,0,0,0,0,0,0,0,0,0,0,0,0,0,0,0,0,0,0,0,0,0,0,0,0,0,0,0,0,0,0,0,0,0,0,0,0,0,0,0,0,0,0,0,0,0,0,0,0,0,0,0,0,0,0,0,0,0,0,0,0,0,0,0,0,0,0,0,0,0,0,0,0,0,0,0,0,0,0,0],"id":0,"left_children":[1,3,5,7,9,11,13,15,17,19,-1,21,-1,23,-1,-1,25,27,-1,-1,-1,-1,29,31,33,35,37,39,41,43,45,47,-1,-1,-1,49,51,-1,53,-1,-1,55,57,59,-1,61,-1,63,65,-1,-1,-1,67,69,71,73,75,77,79,-1,81,83,-1,-1,85,87,-1,-1,-1,-1,-1,-1,-1,-1,-1,-1,-1,-1,-1,-1,-1,-1,-1,-1,-1,-1,-1,-1,-1],"loss_changes":[8.98894E3,8.520824E3,8.693335E2,3.4856846E3,2.4295605E2,4.1041632E2,3.037798E2,7.118115E2,1.1945087E3,6.817095E2,0E0,4.07594E2,0E0,1.7651404E2,0E0,0E0,8.193479E2,8.592572E1,0E0,0E0,0E0,0E0,3.4062277E2,1.3814716E2,1.9001465E0,9.784961E1,6.363343E2,2.6549072E0,3.3949342E0,2.753156E2,3.706366E1,4.599999E1,0E0,0E0,0E0,4.7607422E-2,5.3869934E1,0E0,1.23055954E2,0E0,0E0,2.9487405E0,1.4700947E0,2.8065266E1,0E0,2.3512634E1,0E0,6.516469E0,5.106045E0,0E0,0E0,0E0,1.3969727E1,1.0199763E1,1.8413849E1,1.2327725E-1,4.9646592E-1,4.1899252E-1,3.5761297E0,0E0,3.1062791E0,6.7313385E0,0E0,0E0,8.464404E-1,1.0022821E0,0E0,0E0,0E0,0E0,0E0,0E0,0E0,0E0,0E0,0E0,0E0,0E0,0E0,0E0,0E0,0E0,0E0,0E0,0E0,0E0,0E0,0E0,0E0],"parents":[2147483647,0,0,1,1,2,2,3,3,4,4,5,5,6,6,7,7,8,8,9,9,11,11,13,13,16,16,17,17,22,22,23,23,24,24,25,25,26,26,27,27,28,28,29,29,30,30,31,31,35,35,36,36,38,38,41,41,42,42,43,43,45,45,47,47,48,48,52,52,53,53,54,54,55,55,56,56,57,57,58,58,60,60,61,61,64,64,65,65],"right_children":[2,4,6,8,10,12,14,16,18,20,-1,22,-1,24,-1,-1,26,28,-1,-1,-1,-1,30,32,34,36,38,40,42,44,46,48,-1,-1,-1,50,52,-1,54,-1,-1,56,58,60,-1,62,-1,64,66,-1,-1,-1,68,70,72,74,76,78,80,-1,82,84,-1,-1,86,88,-1,-1,-1,-1,-1,-1,-1,-1,-1,-1,-1,-1,-1,-1,-1,-1,-1,-1,-1,-1,-1,-1,-1],"split_conditions":[1E0,1E0,1E0,3E0,2E0,1E0,2E0,1E0,1E0,1E0,8.447517E-2,2E0,8.378948E-2,6.8E-1,8.456856E-2,-4.644955E-2,7E-1,7.2E-1,8.4380284E-2,-4.5597807E-2,8.3934195E-2,-4.5881372E-2,6E-1,1E0,7.8E-1,5.2E-1,2E0,6.6E-1,8.2E-1,3E0,8.2E-1,4.6E-1,8.19299E-2,6.336811E-2,8.221169E-2,5E-1,2E0,-4.621155E-2,8.4E-1,-4.4993453E-2,-2.4642907E-2,7.6E-1,8.6E-1,4E-1,8.17352E-2,3E0,7.7182144E-2,2.6E-1,5.8E-1,-4.639282E-2,-3.9623473E-2,-4.6004206E-2,5.8E-1,7.4E-1,9.2E-1,7.4E-1,8E-1,8.4E-1,9E-1,-3.5168685E-2,4.6E-1,7.2E-1,7.968771E-2,-2.8336523E-2,4.2E-1,5.2E-1,3.9514948E-2,-2.9800305E-2,-1.5612117E-2,-7.026899E-3,6.4430665E-3,2.3031775E-2,3.8374808E-2,1.4555302E-2,4.635926E-3,-1.7665016E-2,-2.0194675E-3,1.2125317E-2,3.171318E-2,-6.6900584E-3,1.6361205E-2,-1.6785443E-2,-2.4822517E-3,2.8923558E-2,4.89068E-2,-8.9408696E-4,-1.0723536E-2,2.6655223E-2,1.3493803E-2],"split_indices":[1,0,2,3,3,0,3,2,2,2,0,3,0,4,0,0,4,4,0,0,0,0,4,0,4,4,3,4,4,3,4,4,0,0,0,4,3,0,4,0,0,4,4,4,0,3,0,4,4,0,0,0,4,4,4,4,4,4,4,0,4,4,0,0,4,4,0,0,0,0,0,0,0,0,0,0,0,0,0,0,0,0,0,0,0,0,0,0,0],"split_type":[0,0,0,0,0,0,0,0,0,0,0,0,0,0,0,0,0,0,0,0,0,0,0,0,0,0,0,0,0,0,0,0,0,0,0,0,0,0,0,0,0,0,0,0,0,0,0,0,0,0,0,0,0,0,0,0,0,0,0,0,0,0,0,0,0,0,0,0,0,0,0,0,0,0,0,0,0,0,0,0,0,0,0,0,0,0,0,0,0],"sum_hessian":[7.778207E3,6.151551E3,1.626656E3,5.376201E3,7.753498E2,4.8891193E2,1.137744E3,4.9472305E3,4.2897046E2,1.6769885E2,6.0765094E2,3.9305133E2,9.58606E1,2.4754456E2,8.901995E2,3.1384624E3,1.8087683E3,1.3109337E2,2.978771E2,5.2620377E1,1.15078476E2,7.870178E1,3.1434955E2,1.4756584E2,9.9978714E1,1.0876403E3,7.211279E2,8.2133545E1,4.8959827E1,1.539718E2,1.6037776E2,1.175951E2,2.9970737E1,2.9741953E1,7.023676E1,6.982495E2,3.8939078E2,1.8279861E2,5.3832935E2,7.1380684E1,1.075286E1,1.6243681E1,3.271615E1,1.2606012E2,2.7911678E1,8.991221E1,7.0465546E1,6.200053E1,5.5594574E1,6.4860333E2,4.9646183E1,9.9978714E1,2.8941208E2,2.4090982E2,2.9741953E2,6.634743E0,9.608938E0,7.321096E0,2.5395052E1,6.154296E1,6.451716E1,7.3897316E1,1.6014898E1,9.837723E0,5.2162807E1,2.8140463E1,2.745411E1,9.540303E1,1.9400905E2,7.092312E1,1.699867E2,1.3910083E2,1.583187E2,3.2029796E0,3.4317636E0,6.8635273E0,2.745411E0,3.8893323E0,3.4317636E0,8.465017E0,1.6930035E1,1.876031E1,4.575685E1,3.980846E1,3.4088852E1,4.3469006E1,8.693802E0,1.2354349E1,1.5786113E1],"tree_param":{"num_deleted":"0","num_feature":"6","num_nodes":"89","size_leaf_vector":"1"}},{"base_weights":[-1.824891E-2,-5.6520694E-1,1.9832109E0,-1.0009109E0,2.401915E0,9.5524395E-1,2.4176898E0,-1.2318643E0,1.6317981E0,1.410316E0,8.0056146E-2,5.371572E-1,7.945201E-2,1.4941832E0,8.0143355E-2,-4.5702256E-2,-7.333427E-1,-7.763815E-1,7.997337E-2,-4.4831507E-2,7.958134E-2,-4.5144398E-2,1.0339246E0,5.046586E-1,2.1970892E0,-1.2780253E0,7.6563574E-2,-1.1671687E0,6.3775295E-1,2.3503745E-1,2.0420513E0,4.341959E-2,7.6436706E-2,1.7220421E0,7.71978E-2,-1.4897089E0,-8.690829E-1,-4.5475632E-2,6.1460614E-1,-4.3566294E-2,-6.085117E-1,4.778919E-1,3.1617552E-2,-3.834445E-1,7.833177E-2,1.5730565E0,7.220995E-2,-5.6755966E-1,4.844413E-1,1.454967E0,7.5381584E-2,-4.5513894E-2,-3.7298918E-2,-4.5257937E-2,-6.355512E-1,4.6394046E-2,1.2071009E0,-5.034622E-1,-2.9967738E-2,5.907433E-1,1.0307707E-1,-1.0872179E0,-5.5846304E-2,3.8640026E-2,7.481799E-2,-6.1236656E-1,-9.903097E-2,1.4617226E-1,6.042368E-1,1.4830165E0,2.7996097E-3,-2.335375E-2,-1.5414204E-2,-2.27079E-3,1.1305745E-2,2.950654E-2,4.3293864E-2,-1.7674938E-2,9.765467E-3,6.5184017E-3,2.1798624E-2,-1.3386263E-2,1.5212216E-2,-3.652813E-2,-1.9590415E-2,-9.989527E-3,8.124783E-3,-1.3723038E-2,-2.667303E-2,1.1386725E-2,-1.7503025E-2,3.1840555E-2,-1.9934236E-3,3.087475E-2,1.4512078E-2,5.449075E-2,4.0247012E-2],"categories":[],"categories_nodes":[],"categories_segments":[],"categories_sizes":[],"default_left":[0,0,0,0,0,0,0,0,0,0,0,0,0,0,0,0,0,0,0,0,0,0,0,0,0,0,0,0,0,0,0,0,0,0,0,0,0,0,0,0,0,0,0,0,0,0,0,0,0,0,0,0,0,0,0,0,0,0,0,0,0,0,0,0,0,0,0,0,0,0,0,0,0,0,0,0,0,0,0,0,0,0,0,0,0,0,0,0,0,0,0,0,0,0,0,0,0],"id":1,"left_children":[1,3,5,7,9,11,13,15,17,19,-1,21,-1,23,-1,-1,25,27,-1,-1,-1,-1,29,31,33,35,37,39,41,43,45,47,-1,49,-1,51,53,-1,55,-1,57,59,-1,61,-1,63,-1,65,67,69,-1,-1,-1,-1,71,73,75,77,-1,79,81,83,85,-1,-1,87,89,91,93,95,-1,-1,-1,-1,-1,-1,-1,-1,-1,-1,-1,-1,-1,-1,-1,-1,-1,-1,-1,-1,-1,-1,-1,-1,-1,-1,-1],"loss_changes":[8.501528E3,7.8873247E3,7.4212744E2,3.2360928E3,2.0278369E2,3.5028342E2,2.7041357E2,7.0967725E2,1.07128E3,6.0904846E2,0E0,4.0701105E2,0E0,1.7602057E2,0E0,0E0,7.970617E2,7.245342E1,0E0,0E0,0E0,0E0,2.589215E2,1.0079014E2,2.2122864E1,9.22157E1,6.2414075E2,1.5361877E1,1.4084654E0,2.6672205E2,2.0563538E1,2.408542E1,0E0,1.084964E1,0E0,2.9136963E0,5.4425262E1,0E0,1.8322041E2,0E0,9.812517E-1,8.9482355E-1,0E0,3.321899E1,0E0,1.3888184E1,0E0,7.267132E-1,2.0132113E0,1.9134674E0,0E0,0E0,0E0,0E0,4.356201E0,1.1282081E1,1.2640167E1,2.3609095E0,0E0,7.126341E-1,1.6553626E0,1.7975464E0,9.102874E0,0E0,0E0,1.0526972E0,1.2569332E0,2.9663112E0,1.4467754E0,4.2022705E-2,0E0,0E0,0E0,0E0,0E0,0E0,0E0,0E0,0E0,0E0,0E0,0E0,0E0,0E0,0E0,0E0,0E0,0E0,0E0,0E0,0E0,0E0,0E0,0E0,0E0,0E0,0E0],"parents":[2147483647,0,0,1,1,2,2,3,3,4,4,5,5,6,6,7,7,8,8,9,9,11,11,13,13,16,16,17,17,22,22,23,23,24,24,25,25,26,26,27,27,28,28,29,29,30,30,31,31,33,33,35,35,36,36,38,38,40,40,41,41,43,43,45,45,47,47,48,48,49,49,54,54,55,55,56,56,57,57,59,59,60,60,61,61,62,62,65,65,66,66,67,67,68,68,69,69],"right_children":[2,4,6,8,10,12,14,16,18,20,-1,22,-1,24,-1,-1,26,28,-1,-1,-1,-1,30,32,34,36,38,40,42,44,46,48,-1,50,-1,52,54,-1,56,-1,58,60,-1,62,-1,64,-1,66,68,70,-1,-1,-1,-1,72,74,76,78,-1,80,82,84,86,-1,-1,88,90,92,94,96,-1,-1,-1,-1,-1,-1,-1,-1,-1,-1,-1,-1,-1,-1,-1,-1,-1,-1,-1,-1,-1,-1,-1,-1,-1,-1,-1],"split_conditions":[1E0,1E0,1E0,3E0,2E0,1E0,2E0,1E0,1E0,1E0,8.0056146E-2,2E0,7.945201E-2,4.228457E-1,8.0143355E-2,-4.5702256E-2,5.9519035E-1,7.975952E-1,7.997337E-2,-4.4831507E-2,7.958134E-2,-4.5144398E-2,5.511022E-1,1E0,6.8537074E-1,3.8877755E-1,2E0,5.4709417E-1,9.579158E-1,3E0,7.55511E-1,1.8637274E-1,7.6436706E-2,1E0,7.71978E-2,3.4669337E-1,2E0,-4.5475632E-2,8.1362724E-1,-4.3566294E-2,7.47495E-1,9.1182363E-1,3.1617552E-2,1.6032064E-1,7.833177E-2,3E0,7.220995E-2,1.6833667E-1,2.4248497E-1,6.773547E-1,7.5381584E-2,-4.5513894E-2,-3.7298918E-2,-4.5257937E-2,4.8296592E-1,7.51503E-1,9.1182363E-1,7.334669E-1,-2.9967738E-2,8.296593E-1,9.358717E-1,1.1623246E-1,3.6472946E-1,3.8640026E-2,7.481799E-2,1.12224445E-1,1.783567E-1,1.9438878E-1,2.745491E-1,4.789579E-1,2.7996097E-3,-2.335375E-2,-1.5414204E-2,-2.27079E-3,1.1305745E-2,2.950654E-2,4.3293864E-2,-1.7674938E-2,9.765467E-3,6.5184017E-3,2.1798624E-2,-1.3386263E-2,1.5212216E-2,-3.652813E-2,-1.9590415E-2,-9.989527E-3,8.124783E-3,-1.3723038E-2,-2.667303E-2,1.1386725E-2,-1.7503025E-2,3.1840555E-2,-1.9934236E-3,3.087475E-2,1.4512078E-2,5.449075E-2,4.0247012E-2],"split_indices":[1,0,2,3,3,0,3,2,2,2,0,3,0,5,0,0,5,5,0,0,0,0,5,0,5,5,3,5,5,3,5,5,0,0,0,5,3,0,5,0,5,5,0,5,0,3,0,5,5,5,0,0,0,0,5,5,5,5,0,5,5,5,5,0,0,5,5,5,5,5,0,0,0,0,0,0,0,0,0,0,0,0,0,0,0,0,0,0,0,0,0,0,0,0,0,0,0],"split_type":[0,0,0,0,0,0,0,0,0,0,0,0,0,0,0,0,0,0,0,0,0,0,0,0,0,0,0,0,0,0,0,0,0,0,0,0,0,0,0,0,0,0,0,0,0,0,0,0,0,0,0,0,0,0,0,0,0,0,0,0,0,0,0,0,0,0,0,0,0,0,0,0,0,0,0,0,0,0,0,0,0,0,0,0,0,0,0,0,0,0,0,0,0,0,0,0,0],"sum_hessian":[7.763953E3,6.0981665E3,1.6657866E3,5.3179243E3,7.8024225E2,4.9583975E2,1.1699469E3,4.8895244E3,4.283997E2,1.6666978E2,6.1357245E2,3.9870566E2,9.713411E1,2.5366335E2,9.162835E2,3.0839312E3,1.8055934E3,1.2876062E2,2.9963907E2,4.987052E1,1.1679926E2,7.7619644E1,3.21086E2,1.06065834E2,1.475975E2,1.0792156E3,7.2637787E2,1.01019226E2,2.7741392E1,1.7982072E2,1.4126529E2,8.736526E1,1.8700579E1,6.769136E1,7.990615E1,7.0937427E2,3.6984134E2,1.8298596E2,5.433919E2,6.583108E1,3.5188152E1,2.1594608E1,6.146785E0,1.4334613E2,3.6474594E1,6.414399E1,7.712129E1,3.6505135E1,5.0860123E1,5.2722805E1,1.4968558E1,6.336987E2,7.567554E1,9.746856E1,2.7237277E2,2.779304E2,2.654615E2,2.9531574E1,5.6565766E0,1.6154594E1,5.4400134E0,4.4795025E1,9.855111E1,5.081345E1,1.3330537E1,3.3038555E1,3.4665804E0,1.3881845E1,3.6978275E1,5.1571316E1,1.1514885E0,1.2281487E2,1.4955789E2,2.0351465E2,7.441574E1,1.3898836E2,1.2647313E2,2.7026749E1,2.5048256E0,5.002944E0,1.115165E1,2.2611723E0,3.1788414E0,3.306252E1,1.1732504E1,5.3307495E1,4.5243618E1,2.2881273E1,1.0157282E1,1.852631E0,1.6139494E0,1.8645352E0,1.2017311E1,6.503687E0,3.047459E1,1.1836411E1,3.9734905E1],"tree_param":{"num_deleted":"0","num_feature":"6","num_nodes":"97","size_leaf_vector":"1"}},{"base_weights":[-2.1900918E-2,-5.5628955E-1,1.9008056E0,-9.8426634E-1,2.277659E0,9.1210383E-1,2.3129137E0,-1.210194E0,1.5762414E0,1.3095393E0,7.620028E-2,5.005303E-1,7.5673044E-2,1.4451152E0,7.628081E-2,-4.5000155E-2,-7.174191E-1,-7.8061044E-1,7.612732E-2,-4.4188175E-2,7.577961E-2,-4.4455748E-2,9.833956E-1,5.6103194E-1,2.1543744E0,-1.2046467E0,2.0649517E-1,-1.3872541E0,1.5378033E-1,4.364947E-2,1.9190942E0,5.5408847E-2,7.344917E-2,1.5683901E0,7.39763E-2,-1.4742026E0,-7.574119E-1,-4.4732396E-2,7.582699E-1,-4.3807864E-2,-1.835962E-2,-3.9501676E-1,4.9828035E-1,-5.6213105E-1,7.4314356E-2,1.5417928E0,7.108172E-2,-1.7000432E-1,6.0932577E-1,4.1787E-2,6.809498E-2,-4.5253433E-2,-1.219882E0,-4.462887E-2,-5.0807E-1,3.889826E-1,1.2505941E0,-1.2680003E-1,-1.9674525E-2,2.4262877E-2,3.847016E-1,-1.0395771E0,-4.8828132E-2,1.3025876E0,7.255053E-2,-2.2911536E-2,-4.9878117E-2,2.2482054E-2,4.3721223E-1,-4.336468E-2,-3.340225E-2,-2.4055332E-2,-9.247185E-3,6.503784E-3,2.0631583E-2,2.6371464E-2,3.978149E-2,-1.306785E-2,1.5871649E-3,-5.646278E-3,1.4993632E-2,-4.151631E-2,-2.7398963E-2,-9.317223E-3,2.4717415E-3,3.2790538E-2,4.7948755E-2,-4.578318E-3,3.6921683E-3,6.0522123E-3,1.5665932E-2],"categories":[],"categories_nodes":[],"categories_segments":[],"categories_sizes":[],"default_left":[0,0,0,0,0,0,0,0,0,0,0,0,0,0,0,0,0,0,0,0,0,0,0,0,0,0,0,0,0,0,0,0,0,0,0,0,0,0,0,0,0,0,0,0,0,0,0,0,0,0,0,0,0,0,0,0,0,0,0,0,0,0,0,0,0,0,0,0,0,0,0,0,0,0,0,0,0,0,0,0,0,0,0,0,0,0,0,0,0,0,0],"id":2,"left_children":[1,3,5,7,9,11,13,15,17,19,-1,21,-1,23,-1,-1,25,27,-1,-1,-1,-1,29,31,33,35,37,39,41,43,45,47,-1,49,-1,51,53,-1,55,-1,-1,57,59,61,-1,63,-1,65,67,-1,-1,-1,69,-1,71,73,75,77,-1,-1,79,81,83,85,-1,-1,87,-1,89,-1,-1,-1,-1,-1,-1,-1,-1,-1,-1,-1,-1,-1,-1,-1,-1,-1,-1,-1,-1,-1,-1],"loss_changes":[7.9536226E3,7.349E3,6.838628E2,3.0466787E3,1.9860596E2,3.280972E2,2.331416E2,6.897212E2,9.698772E2,5.844678E2,0E0,3.8151007E2,0E0,1.5614673E2,0E0,0E0,8.0748004E2,7.080169E1,0E0,0E0,0E0,0E0,2.8118393E2,1.07750626E2,2.148468E1,1.4044128E2,5.818748E2,3.3857422E0,9.635178E0,2.3816245E2,2.3574097E1,1.1365033E1,0E0,3.11055E0,0E0,4.531494E0,8.001813E1,0E0,8.470511E1,0E0,0E0,1.3025982E0,7.86006E-1,3.166557E1,0E0,1.5733154E1,0E0,4.58969E0,3.0654716E-1,0E0,0E0,0E0,6.016693E-1,0E0,1.9256271E1,1.3698196E1,4.4520264E0,6.3379264E-1,0E0,0E0,1.7217319E0,1.6491165E0,2.2036502E0,2.7718582E0,0E0,0E0,9.9667007E-1,0E0,1.7888594E-1,0E0,0E0,0E0,0E0,0E0,0E0,0E0,0E0,0E0,0E0,0E0,0E0,0E0,0E0,0E0,0E0,0E0,0E0,0E0,0E0,0E0,0E0],"parents":[2147483647,0,0,1,1,2,2,3,3,4,4,5,5,6,6,7,7,8,8,9,9,11,11,13,13,16,16,17,17,22,22,23,23,24,24,25,25,26,26,27,27,28,28,29,29,30,30,31,31,33,33,35,35,36,36,38,38,41,41,42,42,43,43,45,45,47,47,48,48,52,52,54,54,55,55,56,56,57,57,60,60,61,61,62,62,63,63,66,66,68,68],"right_children":[2,4,6,8,10,12,14,16,18,20,-1,22,-1,24,-1,-1,26,28,-1,-1,-1,-1,30,32,34,36,38,40,42,44,46,48,-1,50,-1,52,54,-1,56,-1,-1,58,60,62,-1,64,-1,66,68,-1,-1,-1,70,-1,72,74,76,78,-1,-1,80,82,84,86,-1,-1,88,-1,90,-1,-1,-1,-1,-1,-1,-1,-1,-1,-1,-1,-1,-1,-1,-1,-1,-1,-1,-1,-1,-1,-1],"split_conditions":[1E0,1E0,1E0,3E0,2E0,1E0,2E0,1E0,1E0,1E0,7.620028E-2,2E0,7.5673044E-2,5.8E-1,7.628081E-2,-4.5000155E-2,7.4E-1,7E-1,7.612732E-2,-4.4188175E-2,7.577961E-2,-4.4455748E-2,6E-1,1E0,7.4E-1,5.4E-1,2E0,6.6E-1,8.2E-1,3E0,8.2E-1,4.6E-1,7.344917E-2,1E0,7.39763E-2,5E-1,2E0,-4.4732396E-2,9E-1,-4.3807864E-2,-1.835962E-2,7.6E-1,8.6E-1,4.2E-1,7.4314356E-2,3E0,7.108172E-2,2.6E-1,5.2E-1,4.1787E-2,6.809498E-2,-4.5253433E-2,2E0,-4.462887E-2,6.2E-1,8.4E-1,9.2E-1,7.2E-1,-1.9674525E-2,2.4262877E-2,8.8E-1,2.6E-1,4.8E-1,7.4E-1,7.255053E-2,-2.2911536E-2,3.8E-1,2.2482054E-2,5.4E-1,-4.336468E-2,-3.340225E-2,-2.4055332E-2,-9.247185E-3,6.503784E-3,2.0631583E-2,2.6371464E-2,3.978149E-2,-1.306785E-2,1.5871649E-3,-5.646278E-3,1.4993632E-2,-4.151631E-2,-2.7398963E-2,-9.317223E-3,2.4717415E-3,3.2790538E-2,4.7948755E-2,-4.578318E-3,3.6921683E-3,6.0522123E-3,1.5665932E-2],"split_indices":[1,0,2,3,3,0,3,2,2,2,0,3,0,4,0,0,4,4,0,0,0,0,4,0,4,4,3,4,4,3,4,4,0,0,0,4,3,0,4,0,0,4,4,4,0,3,0,4,4,0,0,0,3,0,4,4,4,4,0,0,4,4,4,4,0,0,4,0,4,0,0,0,0,0,0,0,0,0,0,0,0,0,0,0,0,0,0,0,0,0,0],"split_type":[0,0,0,0,0,0,0,0,0,0,0,0,0,0,0,0,0,0,0,0,0,0,0,0,0,0,0,0,0,0,0,0,0,0,0,0,0,0,0,0,0,0,0,0,0,0,0,0,0,0,0,0,0,0,0,0,0,0,0,0,0,0,0,0,0,0,0,0,0,0,0,0,0,0,0,0,0,0,0,0,0,0,0,0,0,0,0,0,0,0,0],"sum_hessian":[7.7389297E3,6.056362E3,1.6825679E3,5.2623115E3,7.940503E2,4.9594455E2,1.1866234E3,4.836121E3,4.2619022E2,1.7057806E2,6.234722E2,3.9603537E2,9.990916E1,2.4994775E2,9.3667566E2,3.043898E3,1.7922234E3,1.235291E2,3.026611E2,5.1824623E1,1.1875345E2,7.716558E1,3.188698E2,1.1205881E2,1.3788895E2,1.1732201E3,6.190033E2,7.460676E1,4.892234E1,1.5961302E2,1.5925679E2,8.919245E1,2.2866358E1,4.9953526E1,8.793542E1,7.3058685E2,4.4263318E2,1.5142647E2,4.6757684E2,6.73781E1,7.228658E0,1.881035E1,3.011199E1,1.284151E2,3.1197916E1,8.905877E1,7.019802E1,6.3887074E1,2.5305374E1,4.234518E1,7.608346E0,6.395395E2,9.104737E1,1.1140597E2,3.312272E2,2.6819592E2,1.993809E2,1.0006009E1,8.80434E0,6.425722E0,2.3686268E1,6.600014E1,6.241496E1,7.1918785E1,1.7139988E1,9.849437E0,5.4037636E1,1.2101971E1,1.3203404E1,2.5159903E1,6.588747E1,1.3287404E2,1.9835316E2,1.7122739E2,9.696854E1,3.5791645E1,1.6358926E2,3.1571014E0,6.848908E0,3.855886E0,1.9830381E1,1.5038488E1,5.096165E1,2.0385267E1,4.2029694E1,4.4837875E1,2.7080906E1,3.3974438E1,2.00632E1,4.396291E0,8.807114E0],"tree_param":{"num_deleted":"0","num_feature":"6","num_nodes":"91","size_leaf_vector":"1"}},{"base_weights":[-2.5913168E-2,-5.43618E-1,1.8169055E0,-9.686072E-1,2.1960883E0,8.223305E-1,2.0784469E0,-1.1938055E0,1.495165E0,1.2925847E0,7.2808184E-2,4.2621982E-1,7.2306186E-2,1.8428243E0,2.2791321E0,-1.3987998E0,-8.7947863E-1,1.3031667E0,1.7372497E0,1.3002561E0,2.8842865E-3,-3.697198E-1,1.0789069E0,1.7015766E0,7.23826E-2,1.9919614E0,7.32745E-2,-4.4164505E-2,-1.0881424E0,-1.3059181E0,-3.54676E-1,1.4393121E0,1.2180353E0,1.38676E0,2.2513685E0,8.3564866E-1,3.9965548E-2,-1.2955133E0,9.7709495E-1,-3.4089696E-1,1.3173255E0,1.5442433E0,7.226006E-2,1.6823869E0,2.260805E0,-1.4256566E0,-4.2339784E-1,-1.4543905E0,-9.654806E-1,-4.3959416E-2,-1.8827274E-1,1.6767011E0,3.65289E-2,7.1153593E-1,1.2752842E0,4.6854475E-1,1.4289422E0,1.629794E0,7.150564E-2,4.178439E-2,-2.3952115E-2,-4.5203164E-2,-6.175478E-1,1.4573972E-1,1.451761E0,-1.2935239E0,8.186777E-1,7.5386864E-1,1.4098284E0,1.3409463E0,2.209739E0,1.5014822E0,7.021946E-2,2.639294E-2,6.83575E-2,-4.4435393E-2,-1.0564594E0,-4.2858623E-2,-2.3561189E-1,-4.4683576E-2,-1.2478727E0,-4.3580662E-2,-5.428052E-1,-3.1658137E-1,-7.080246E-2,1.2874863E0,5.8175094E-2,7.772153E-1,-1.8192206E-3,1.2874047E0,3.8480455E-1,-2.2795692E-1,3.571644E-2,5.4926172E-2,1.3409737E0,9.6955824E-1,6.451444E-2,-1.5910564E-2,2.5864026E-1,-4.2856373E-2,9.440793E-1,-1.1781926E0,1.2227063E0,1.5611295E0,5.301885E-1,-4.279322E-2,-1.1476041E-2,9.9476224E-1,-4.612448E-3,-1.1360682E0,5.5448946E-2,1.4255713E0,5.5972273E-3,1.272265E0,1.5588965E0,1.3501092E0,7.044674E-2,1.3080772E0,6.907091E-2,-4.23325E-2,-1.5696345E-2,-1.6024988E-2,-3.5353182E-3,-4.39155E-2,-1.53968055E-2,-4.253065E-2,-1.1916168E-2,-2.7628401E-2,-4.9611907E-3,4.603741E-3,-4.434706E-3,4.264488E-2,8.478949E-3,2.854689E-3,2.4608351E-2,3.6402762E-2,4.4017617E-2,2.3024175E-3,1.53995035E-2,-2.1170971E-3,-1.0399233E-2,2.3957111E-2,4.224385E-2,3.533181E-2,5.7770037E-3,1.581795E-2,-1.7508788E-3,6.032256E-3,4.0074337E-2,-4.01589E-2,-1.1876898E-2,1.1716719E-2,4.3651067E-2,5.1185776E-2,3.311362E-2,2.6855317E-3,2.233016E-2,1.5159668E-2,4.035036E-2,-4.0266026E-2,2.2692862E-3,4.574839E-2,3.6900364E-2,4.3276373E-2,3.5439108E-2,2.7225764E-2,6.5021716E-2,1.4641456E-2,4.2531557E-2,2.942619E-2,4.3860804E-2],"categories":[],"categories_nodes":[],"categories_segments":[],"categories_sizes":[],"default_left":[0,0,0,0,0,0,0,0,0,0,0,0,0,0,0,0,0,0,0,0,0,0,0,0,0,0,0,0,0,0,0,0,0,0,0,0,0,0,0,0,0,0,0,0,0,0,0,0,0,0,0,0,0,0,0,0,0,0,0,0,0,0,0,0,0,0,0,0,0,0,0,0,0,0,0,0,0,0,0,0,0,0,0,0,0,0,0,0,0,0,0,0,0,0,0,0,0,0,0,0,0,0,0,0,0,0,0,0,0,0,0,0,0,0,0,0,0,0,0,0,0,0,0,0,0,0,0,0,0,0,0,0,0,0,0,0,0,0,0,0,0,0,0,0,0,0,0,0,0,0,0,0,0,0,0,0,0,0,0,0,0,0,0,0,0,0,0,0,0,0,0],"id":3,"left_children":[1,3,5,7,9,11,13,15,17,19,-1,21,-1,23,25,27,29,31,33,35,-1,37,39,41,-1,43,-1,-1,45,47,49,51,53,55,57,59,-1,61,63,65,67,69,-1,71,73,75,77,79,81,-1,83,85,-1,87,89,91,93,95,-1,-1,97,-1,99,101,103,105,107,109,111,113,115,117,-1,-1,-1,-1,119,-1,121,-1,123,-1,125,127,129,131,-1,133,-1,135,137,139,-1,-1,141,143,-1,-1,145,-1,147,149,151,153,155,-1,-1,157,-1,159,-1,161,-1,163,165,167,-1,169,-1,-1,-1,-1,-1,-1,-1,-1,-1,-1,-1,-1,-1,-1,-1,-1,-1,-1,-1,-1,-1,-1,-1,-1,-1,-1,-1,-1,-1,-1,-1,-1,-1,-1,-1,-1,-1,-1,-1,-1,-1,-1,-1,-1,-1,-1,-1,-1,-1,-1,-1,-1,-1],"loss_changes":[7.3518115E3,7.00672E3,4.3791602E2,2.8917764E3,1.6542993E2,2.2134735E2,5.904541E1,3.0632227E2,1.8032349E1,1.4042358E0,0E0,1.4802927E2,0E0,4.5839844E1,2.8819824E1,6.419043E1,4.2179272E2,1.1158142E0,3.1139832E1,1.3414001E0,0E0,1.6184158E2,5.339006E1,5.19718E1,0E0,1.8317139E1,0E0,0E0,1.2399255E2,5.119214E1,1.563009E2,2.680252E0,3.6972656E0,3.8104858E0,2.314972E0,6.4143705E0,0E0,1.0062164E1,2.071585E1,2.6776003E1,5.927414E0,5.2814636E1,0E0,1.1661896E1,1.416626E0,5.9769287E0,3.5233612E1,3.3737793E0,6.489847E1,0E0,1.110054E1,1.6586838E0,0E0,9.7972584E-1,1.0308838E0,3.574335E0,1.4375916E0,3.5513077E0,0E0,0E0,1.0276619E0,0E0,2.658775E1,3.0507446E1,2.5635605E0,1.0488567E0,2.0557008E0,4.566441E1,1.9303894E0,2.7819824E0,8.130463E0,1.2905167E1,0E0,0E0,0E0,0E0,9.016174E0,0E0,5.561673E0,0E0,1.6867126E1,0E0,2.1397148E1,3.205396E1,6.6993523E0,2.2050095E0,0E0,4.21834E-1,0E0,7.017517E-2,9.22499E-2,5.3661793E-2,0E0,0E0,2.301834E0,1.2369995E0,0E0,0E0,4.281121E-1,0E0,1.8893023E0,6.8167686E-1,1.699934E0,7.802582E-2,4.1311586E-1,0E0,0E0,9.5617104E-1,0E0,2.1854324E0,0E0,3.0966187E-1,0E0,2.129486E0,2.6507767E1,2.1285439E-1,0E0,2.8519897E0,0E0,0E0,0E0,0E0,0E0,0E0,0E0,0E0,0E0,0E0,0E0,0E0,0E0,0E0,0E0,0E0,0E0,0E0,0E0,0E0,0E0,0E0,0E0,0E0,0E0,0E0,0E0,0E0,0E0,0E0,0E0,0E0,0E0,0E0,0E0,0E0,0E0,0E0,0E0,0E0,0E0,0E0,0E0,0E0,0E0,0E0,0E0,0E0,0E0,0E0,0E0,0E0,0E0],"parents":[2147483647,0,0,1,1,2,2,3,3,4,4,5,5,6,6,7,7,8,8,9,9,11,11,13,13,14,14,15,15,16,16,17,17,18,18,19,19,21,21,22,22,23,23,25,25,28,28,29,29,30,30,31,31,32,32,33,33,34,34,35,35,37,37,38,38,39,39,40,40,41,41,43,43,44,44,45,45,46,46,47,47,48,48,50,50,51,51,53,53,54,54,55,55,56,56,57,57,60,60,62,62,63,63,64,64,65,65,66,66,67,67,68,68,69,69,70,70,71,71,76,76,78,78,80,80,82,82,83,83,84,84,85,85,87,87,89,89,90,90,91,91,94,94,95,95,98,98,100,100,101,101,102,102,103,103,104,104,107,107,109,109,111,111,113,113,114,114,115,115,117,117],"right_children":[2,4,6,8,10,12,14,16,18,20,-1,22,-1,24,26,28,30,32,34,36,-1,38,40,42,-1,44,-1,-1,46,48,50,52,54,56,58,60,-1,62,64,66,68,70,-1,72,74,76,78,80,82,-1,84,86,-1,88,90,92,94,96,-1,-1,98,-1,100,102,104,106,108,110,112,114,116,118,-1,-1,-1,-1,120,-1,122,-1,124,-1,126,128,130,132,-1,134,-1,136,138,140,-1,-1,142,144,-1,-1,146,-1,148,150,152,154,156,-1,-1,158,-1,160,-1,162,-1,164,166,168,-1,170,-1,-1,-1,-1,-1,-1,-1,-1,-1,-1,-1,-1,-1,-1,-1,-1,-1,-1,-1,-1,-1,-1,-1,-1,-1,-1,-1,-1,-1,-1,-1,-1,-1,-1,-1,-1,-1,-1,-1,-1,-1,-1,-1,-1,-1,-1,-1,-1,-1,-1,-1,-1,-1],"split_conditions":[1E0,1E0,2E0,3E0,2E0,1E0,5.8E-1,7E-1,5.7114226E-1,1E0,7.2808184E-2,5.8E-1,7.2306186E-2,1E0,3.6472946E-1,8.1362724E-1,5.551102E-1,4.8E-1,6.8E-1,2.8E-1,2.8842865E-3,6.1523044E-1,1.482966E-1,3E0,7.23826E-2,7.8E-1,7.32745E-2,-4.4164505E-2,5.4E-1,3.8877755E-1,2E0,2.8256512E-1,5.4E-1,2.4E-1,6.6132265E-1,5.4709417E-1,3.9965548E-2,4.549098E-1,3.4E-1,8.4E-1,2.6653305E-1,7.55511E-1,7.226006E-2,3E0,6.012024E-3,5E-1,2E0,9.6E-1,8.4E-1,-4.3959416E-2,7.8957915E-1,1.2825651E-1,3.65289E-2,5.4108214E-1,5.551102E-1,8.056112E-1,6.3126254E-1,8.4E-1,7.150564E-2,4.178439E-2,6.6132265E-1,-4.5203164E-2,4.6E-1,8.1362724E-1,9.699399E-1,7.8E-1,9.8E-1,7.4E-1,9.9198395E-1,5.831663E-1,2.6E-1,1E0,7.021946E-2,2.639294E-2,6.83575E-2,-4.4435393E-2,9.278557E-1,-4.2858623E-2,8.6773545E-1,-4.4683576E-2,3.026052E-1,-4.3580662E-2,2E0,7.6E-1,7.8E-1,1.0821643E-1,5.8175094E-2,3.4068137E-2,-1.8192206E-3,9E-1,7.6E-1,7.4348694E-1,3.571644E-2,5.4926172E-2,6.773547E-1,6.4128256E-1,6.451444E-2,-1.5910564E-2,8.1763524E-1,-4.2856373E-2,5E-1,7.5951904E-1,2.6E-1,5E-1,9.799599E-1,-4.279322E-2,-1.1476041E-2,7.014028E-2,-4.612448E-3,7E-1,5.5448946E-2,8.4E-1,5.5972273E-3,3.4E-1,4E-1,7.795591E-1,7.044674E-2,1.3226452E-1,6.907091E-2,-4.23325E-2,-1.5696345E-2,-1.6024988E-2,-3.5353182E-3,-4.39155E-2,-1.53968055E-2,-4.253065E-2,-1.1916168E-2,-2.7628401E-2,-4.9611907E-3,4.603741E-3,-4.434706E-3,4.264488E-2,8.478949E-3,2.854689E-3,2.4608351E-2,3.6402762E-2,4.4017617E-2,2.3024175E-3,1.53995035E-2,-2.1170971E-3,-1.0399233E-2,2.3957111E-2,4.224385E-2,3.533181E-2,5.7770037E-3,1.581795E-2,-1.7508788E-3,6.032256E-3,4.0074337E-2,-4.01589E-2,-1.1876898E-2,1.1716719E-2,4.3651067E-2,5.1185776E-2,3.311362E-2,2.6855317E-3,2.233016E-2,1.5159668E-2,4.035036E-2,-4.0266026E-2,2.2692862E-3,4.574839E-2,3.6900364E-2,4.3276373E-2,3.5439108E-2,2.7225764E-2,6.5021716E-2,1.4641456E-2,4.2531557E-2,2.942619E-2,4.3860804E-2],"split_indices":[1,0,3,3,3,0,4,4,5,4,0,4,0,0,5,5,5,4,4,4,0,5,5,3,0,4,0,0,4,5,3,5,4,4,5,5,0,5,4,4,5,5,0,3,5,4,3,4,4,0,5,5,0,5,5,5,5,4,0,0,5,0,4,5,5,4,4,4,5,5,4,0,0,0,0,0,5,0,5,0,5,0,3,4,4,5,0,5,0,4,4,5,0,0,5,5,0,0,5,0,4,5,4,4,5,0,0,5,0,4,0,4,0,4,4,5,0,5,0,0,0,0,0,0,0,0,0,0,0,0,0,0,0,0,0,0,0,0,0,0,0,0,0,0,0,0,0,0,0,0,0,0,0,0,0,0,0,0,0,0,0,0,0,0,0,0,0,0,0,0,0],"split_type":[0,0,0,0,0,0,0,0,0,0,0,0,0,0,0,0,0,0,0,0,0,0,0,0,0,0,0,0,0,0,0,0,0,0,0,0,0,0,0,0,0,0,0,0,0,0,0,0,0,0,0,0,0,0,0,0,0,0,0,0,0,0,0,0,0,0,0,0,0,0,0,0,0,0,0,0,0,0,0,0,0,0,0,0,0,0,0,0,0,0,0,0,0,0,0,0,0,0,0,0,0,0,0,0,0,0,0,0,0,0,0,0,0,0,0,0,0,0,0,0,0,0,0,0,0,0,0,0,0,0,0,0,0,0,0,0,0,0,0,0,0,0,0,0,0,0,0,0,0,0,0,0,0,0,0,0,0,0,0,0,0,0,0,0,0,0,0,0,0,0,0],"sum_hessian":[7.703974E3,6.014906E3,1.6890685E3,5.2077197E3,8.0718616E2,3.525511E2,1.3365173E3,4.7720513E3,4.3566846E2,1.6561241E2,6.415738E2,2.8317804E2,6.9373024E1,6.1943164E2,7.170857E2,2.8862664E3,1.8857849E3,2.465288E2,1.8913966E2,1.6447107E2,1.1413472E0,1.2778284E2,1.5539522E2,4.9959955E2,1.1983209E2,2.6478662E2,4.522991E2,2.3319275E3,5.543386E2,1.039571E3,8.4621387E2,8.872673E1,1.5780206E2,1.1466594E2,7.447373E1,1.2323222E1,1.5214784E2,7.575046E1,5.2032383E1,2.2280867E1,1.3311435E2,4.112723E2,8.8327225E1,1.26443855E2,1.3834277E2,3.6690393E2,1.8743471E2,7.2159515E2,3.1797592E2,1.0924772E2,7.369661E2,3.967602E1,4.9050713E1,1.7388544E1,1.4041353E2,5.5680966E0,1.0909784E2,1.5395326E1,5.9078403E1,7.100569E0,5.222653E0,5.682187E1,1.8928589E1,1.938591E1,3.2646473E1,1.2168526E1,1.011234E1,2.0061962E1,1.1305238E2,3.1734424E2,9.392807E1,1.01759186E2,2.4684671E1,2.399928E0,1.3594284E2,3.1632086E2,5.058305E1,2.8463133E1,1.5897157E2,6.115548E2,1.1004034E2,1.4657983E2,1.7139609E2,3.5142358E2,3.8554254E2,1.8358097E1,2.1317923E1,1.6019447E1,1.3690984E0,1.3808823E2,2.3252928E0,3.1823862E0,2.3857107E0,1.6032421E1,9.306542E1,8.049972E0,7.345354E0,1.5565702E0,3.6660829E0,1.251461E1,6.4139786E0,8.653739E0,1.0732171E1,2.8562773E1,4.0836997E0,1.0125379E1,2.0431473E0,8.542513E0,1.5698271E0,7.3431883E0,1.2718773E1,1.1145264E2,1.5997486E0,2.465028E2,7.084144E1,1.4523657E1,7.940441E1,8.408643E1,1.7672749E1,2.9391039E1,2.1192013E1,4.3969196E1,1.1500238E2,8.427259E1,2.5767748E1,2.3207754E1,1.4818832E2,6.930951E1,2.8211407E2,9.830826E1,2.8723428E2,1.58320675E1,2.5260303E0,1.1419688E0,1.4877478E1,1.0333095E2,3.4757286E1,1.1546572E0,1.1706356E0,2.0536478E0,1.1287384E0,1.1673197E1,8.139222E1,5.942204E0,2.107768E0,1.62543E0,2.040653E0,2.7366433E0,3.6773353E0,6.5908885E0,2.06285E0,2.927522E0,7.804649E0,1.9611565E1,8.951208E0,1.7992599E0,2.28444E0,4.5821505E0,3.9603627E0,6.183568E0,1.1596203E0,6.939241E1,4.206023E1,8.065562E1,1.658472E2,3.5418564E1,3.542288E1,1.6539135E0,1.2869743E1,2.926278E1,5.4823654E1],"tree_param":{"num_deleted":"0","num_feature":"6","num_nodes":"171","size_leaf_vector":"1"}},{"base_weights":[-2.0454561E-2,-5.3032064E-1,1.754317E0,-9.492296E-1,2.1084979E0,8.440021E-1,2.1299827E0,-1.174943E0,1.462221E0,1.2795466E0,6.9796585E-2,4.3965164E-1,6.940894E-2,1.3086619E0,7.031683E-2,-4.3848354E-2,-6.8890893E-1,-7.8306663E-1,7.0887454E-2,-4.402095E-2,7.081139E-2,-4.3958854E-2,8.73709E-1,4.7900018E-1,2.0026007E0,-1.187563E0,2.2020103E-1,-1.3694261E0,2.4406327E-1,-2.5509521E-2,1.76768E0,-1.0184784E-2,6.754402E-2,1.4480871E0,6.952871E-2,-1.4325266E0,-7.7565163E-1,-4.346819E-2,7.511342E-1,-4.373263E-2,-7.051053E-1,-1.6347384E-1,4.2990336E-1,-5.8828545E-1,6.8137996E-2,1.2012694E0,2.0550678E0,-5.7169336E-1,2.0995353E-1,3.8831264E-2,6.253371E-2,-4.393543E-2,-1.1924607E0,-4.3357685E-2,-5.396234E-1,3.9815518E-1,1.2151326E0,-4.658687E-3,-2.4738023E-2,1.5538077E-1,-3.9720994E-1,7.7289075E-1,3.0112776E-1,-1.060838E0,-5.6222294E-2,2.7779322E-2,6.461251E-2,5.2243426E-2,6.5314226E-2,-2.5033478E-2,-3.6146036E-1,2.759584E-2,4.4321856E-1,-4.208292E-2,-3.284072E-2,-2.301034E-2,-1.1391413E-2,7.1232333E-3,1.9931832E-2,2.6138898E-2,3.8693033E-2,1.7356236E-3,6.3338275E-3,-1.4560452E-2,-1.8398127E-3,9.636388E-3,3.1109804E-2,-1.82947E-3,1.4195999E-2,-3.822949E-2,-2.7706912E-2,-1.4074836E-2,1.6042981E-3,-3.9476263E-3,-2.2766123E-2,4.798391E-3,-1.2351598E-2,1.0653004E-2,2.1189928E-2],"categories":[],"categories_nodes":[],"categories_segments":[],"categories_sizes":[],"default_left":[0,0,0,0,0,0,0,0,0,0,0,0,0,0,0,0,0,0,0,0,0,0,0,0,0,0,0,0,0,0,0,0,0,0,0,0,0,0,0,0,0,0,0,0,0,0,0,0,0,0,0,0,0,0,0,0,0,0,0,0,0,0,0,0,0,0,0,0,0,0,0,0,0,0,0,0,0,0,0,0,0,0,0,0,0,0,0,0,0,0,0,0,0,0,0,0,0,0,0],"id":4,"left_children":[1,3,5,7,9,11,13,15,17,19,-1,21,-1,23,-1,-1,25,27,-1,-1,-1,-1,29,31,33,35,37,39,41,43,45,47,-1,49,-1,51,53,-1,55,-1,57,59,61,63,-1,65,67,69,71,-1,-1,-1,73,-1,75,77,79,-1,-1,81,83,85,87,89,91,-1,-1,-1,-1,-1,93,95,97,-1,-1,-1,-1,-1,-1,-1,-1,-1,-1,-1,-1,-1,-1,-1,-1,-1,-1,-1,-1,-1,-1,-1,-1,-1,-1],"loss_changes":[6.955186E3,6.6022783E3,5.848032E2,2.8067485E3,1.4493872E2,2.9773807E2,2.1014795E2,6.556553E2,8.947649E2,5.1604736E2,0E0,3.28305E2,0E0,1.4471884E2,0E0,0E0,7.9376276E2,7.6919266E1,0E0,0E0,0E0,0E0,2.5948392E2,1.0108745E2,2.0657898E1,1.12962036E2,5.512934E2,3.7309723E0,3.634485E0,2.1057889E2,2.3877869E1,1.1534585E1,0E0,2.434349E0,0E0,3.6885986E0,6.619635E1,0E0,7.676993E1,0E0,6.245146E-1,1.214172E0,1.2070227E0,3.283122E1,0E0,1.2921997E1,2.654724E-1,1.1498489E0,2.8406827E0,0E0,0E0,0E0,2.8612518E-1,0E0,1.1160004E1,1.136858E1,4.093567E0,0E0,0E0,2.7254164E-2,2.4270749E-1,6.521883E-1,1.6076117E0,8.5178375E-1,2.860328E0,0E0,0E0,0E0,0E0,0E0,1.3947773E0,2.316464E0,4.2989874E-1,0E0,0E0,0E0,0E0,0E0,0E0,0E0,0E0,0E0,0E0,0E0,0E0,0E0,0E0,0E0,0E0,0E0,0E0,0E0,0E0,0E0,0E0,0E0,0E0,0E0,0E0],"parents":[2147483647,0,0,1,1,2,2,3,3,4,4,5,5,6,6,7,7,8,8,9,9,11,11,13,13,16,16,17,17,22,22,23,23,24,24,25,25,26,26,27,27,28,28,29,29,30,30,31,31,33,33,35,35,36,36,38,38,40,40,41,41,42,42,43,43,45,45,46,46,47,47,48,48,52,52,54,54,55,55,56,56,59,59,60,60,61,61,62,62,63,63,64,64,70,70,71,71,72,72],"right_children":[2,4,6,8,10,12,14,16,18,20,-1,22,-1,24,-1,-1,26,28,-1,-1,-1,-1,30,32,34,36,38,40,42,44,46,48,-1,50,-1,52,54,-1,56,-1,58,60,62,64,-1,66,68,70,72,-1,-1,-1,74,-1,76,78,80,-1,-1,82,84,86,88,90,92,-1,-1,-1,-1,-1,94,96,98,-1,-1,-1,-1,-1,-1,-1,-1,-1,-1,-1,-1,-1,-1,-1,-1,-1,-1,-1,-1,-1,-1,-1,-1,-1,-1],"split_conditions":[1E0,1E0,1E0,3E0,2E0,1E0,2E0,1E0,1E0,1E0,6.9796585E-2,2E0,6.940894E-2,5.8E-1,7.031683E-2,-4.3848354E-2,7.4E-1,7.2E-1,7.0887454E-2,-4.402095E-2,7.081139E-2,-4.3958854E-2,6E-1,1E0,7.4E-1,5.4E-1,2E0,6.6E-1,8.2E-1,3E0,7.4E-1,3.2E-1,6.754402E-2,1E0,6.952871E-2,5E-1,2E0,-4.346819E-2,9E-1,-4.373263E-2,6.8E-1,7.6E-1,8.6E-1,4.2E-1,6.8137996E-2,3E0,8.2E-1,2.6E-1,4.6E-1,3.8831264E-2,6.253371E-2,-4.393543E-2,2E0,-4.3357685E-2,6.2E-1,8.4E-1,9.2E-1,-4.658687E-3,-2.4738023E-2,7.4E-1,8E-1,8.4E-1,9E-1,2.8E-1,4.6E-1,2.7779322E-2,6.461251E-2,5.2243426E-2,6.5314226E-2,-2.5033478E-2,3E-1,4.2E-1,5.6E-1,-4.208292E-2,-3.284072E-2,-2.301034E-2,-1.1391413E-2,7.1232333E-3,1.9931832E-2,2.6138898E-2,3.8693033E-2,1.7356236E-3,6.3338275E-3,-1.4560452E-2,-1.8398127E-3,9.636388E-3,3.1109804E-2,-1.82947E-3,1.4195999E-2,-3.822949E-2,-2.7706912E-2,-1.4074836E-2,1.6042981E-3,-3.9476263E-3,-2.2766123E-2,4.798391E-3,-1.2351598E-2,1.0653004E-2,2.1189928E-2],"split_indices":[1,0,2,3,3,0,3,2,2,2,0,3,0,4,0,0,4,4,0,0,0,0,4,0,4,4,3,4,4,3,4,4,0,0,0,4,3,0,4,0,4,4,4,4,0,3,4,4,4,0,0,0,3,0,4,4,4,0,0,4,4,4,4,4,4,0,0,0,0,0,4,4,4,0,0,0,0,0,0,0,0,0,0,0,0,0,0,0,0,0,0,0,0,0,0,0,0,0,0],"split_type":[0,0,0,0,0,0,0,0,0,0,0,0,0,0,0,0,0,0,0,0,0,0,0,0,0,0,0,0,0,0,0,0,0,0,0,0,0,0,0,0,0,0,0,0,0,0,0,0,0,0,0,0,0,0,0,0,0,0,0,0,0,0,0,0,0,0,0,0,0,0,0,0,0,0,0,0,0,0,0,0,0,0,0,0,0,0,0,0,0,0,0,0,0,0,0,0,0,0,0],"sum_hessian":[7.6841445E3,5.969807E3,1.7143376E3,5.1524956E3,8.173115E2,5.0174744E2,1.2125902E3,4.7119653E3,4.4053033E2,1.71648E2,6.456635E2,3.9450372E2,1.0724371E2,2.5203006E2,9.605602E2,2.9625872E3,1.749378E3,1.2616117E2,3.1436917E2,4.836694E1,1.2328105E2,7.276858E1,3.2173514E2,1.155594E2,1.3647066E2,1.1295208E3,6.198573E2,8.0100685E1,4.6060486E1,1.6088113E2,1.6085402E2,9.1343636E1,2.4215765E1,5.1469368E1,8.500128E1,7.067429E2,4.2277786E2,1.4916989E2,4.7068738E2,6.964618E1,1.045451E1,1.4463397E1,3.1597086E1,1.2981628E2,3.1064846E1,5.588688E1,1.0496713E2,2.527571E1,6.606793E1,4.389966E1,7.5697093E0,6.191439E2,8.759896E1,1.0885018E2,3.1392767E2,2.6837994E2,2.0230745E2,2.2770457E0,8.1774645E0,6.2595572E0,8.20384E0,7.259618E0,2.433747E1,6.8226776E1,6.1589508E1,4.488586E1,1.1001019E1,3.368698E1,7.128016E1,9.914761E0,1.5360948E1,3.7707752E1,2.8360178E1,2.3564362E1,6.40346E1,1.280487E2,1.8587898E2,1.6853587E2,9.984407E1,3.834239E1,1.6396506E2,3.0178175E0,3.2417395E0,6.146067E0,2.0577729E0,3.496324E0,3.7632937E0,8.047613E0,1.6289856E1,2.3460232E1,4.4766544E1,1.2239526E1,4.9349983E1,1.0575125E1,4.785823E0,2.9466455E1,8.241297E0,2.3005177E1,5.3550014E0],"tree_param":{"num_deleted":"0","num_feature":"6","num_nodes":"99","size_leaf_vector":"1"}},{"base_weights":[-2.0998852E-2,-5.15149E-1,1.6811184E0,-9.2704564E-1,2.0253422E0,7.792315E-1,2.0526063E0,-1.1502434E0,1.3941576E0,1.2065372E0,6.710953E-2,4.1341618E-1,6.670506E-2,1.2846311E0,6.7569144E-2,-4.3252073E-2,-6.606036E-1,-7.90412E-1,6.8092436E-2,-4.3396503E-2,6.8000115E-2,-4.3372042E-2,8.483076E-1,4.0666988E-1,1.9182814E0,-1.2125006E0,1.519963E-1,-1.1895617E0,5.987668E-1,8.160392E-2,1.7184148E0,-1.6268933E-2,6.461538E-2,1.5039213E0,6.70932E-2,-1.4258598E0,-7.965883E-1,-4.2916074E-2,6.577652E-1,-4.3697692E-2,-5.8082545E-1,4.182468E-2,6.640625E-1,-5.08098E-1,6.6117145E-2,1.2915535E0,6.33754E-2,-6.976656E-1,2.773518E-1,3.8528536E-2,6.3610256E-2,-4.3452702E-2,-3.3232614E-2,-4.2704288E-2,-5.690281E-1,2.458436E-2,1.0941206E0,-4.9368387E-1,-2.9377285E-2,-2.1376357E-4,2.0271875E-3,8.652927E-1,5.650471E-1,-1.1213102E0,-2.1329491E-1,1.0573813E0,6.3565694E-2,-2.6992607E-1,-9.103383E-1,-4.0394906E-3,4.2957786E-1,-2.0121641E-2,-9.859896E-3,-3.2870672E-3,2.9427125E-3,2.6017599E-2,4.3101918E-2,-1.6846564E-2,7.5882836E-3,1.0219635E-2,3.5600122E-2,-4.743285E-3,1.99243E-2,-3.753227E-2,-2.1199789E-2,2.8098188E-2,-7.4233282E-3,2.3601566E-2,3.3819925E-2,-6.5836575E-5,-1.2673474E-2,-3.2121923E-2,-1.9679978E-2,4.4803205E-3,-8.864758E-3,1.571829E-2,5.0815744E-3],"categories":[],"categories_nodes":[],"categories_segments":[],"categories_sizes":[],"default_left":[0,0,0,0,0,0,0,0,0,0,0,0,0,0,0,0,0,0,0,0,0,0,0,0,0,0,0,0,0,0,0,0,0,0,0,0,0,0,0,0,0,0,0,0,0,0,0,0,0,0,0,0,0,0,0,0,0,0,0,0,0,0,0,0,0,0,0,0,0,0,0,0,0,0,0,0,0,0,0,0,0,0,0,0,0,0,0,0,0,0,0,0,0,0,0,0,0],"id":5,"left_children":[1,3,5,7,9,11,13,15,17,19,-1,21,-1,23,-1,-1,25,27,-1,-1,-1,-1,29,31,33,35,37,39,41,43,45,47,-1,49,-1,51,53,-1,55,-1,57,59,61,63,-1,65,-1,67,69,-1,-1,-1,-1,-1,71,73,75,77,-1,-1,-1,79,81,83,85,87,-1,89,91,93,95,-1,-1,-1,-1,-1,-1,-1,-1,-1,-1,-1,-1,-1,-1,-1,-1,-1,-1,-1,-1,-1,-1,-1,-1,-1,-1],"loss_changes":[6.4314946E3,6.203014E3,5.7481494E2,2.643837E3,1.4062793E2,2.6511014E2,1.8388965E2,6.631743E2,8.5839355E2,4.8717084E2,0E0,3.2705545E2,0E0,1.4034033E2,0E0,0E0,7.797373E2,7.217318E1,0E0,0E0,0E0,0E0,2.181553E2,7.954851E1,1.6024353E1,9.0734375E1,5.643834E2,1.5481552E1,1.0424776E0,2.2013373E2,2.3048157E1,1.7724808E1,0E0,6.3381805E0,0E0,3.2979736E0,4.9588303E1,0E0,1.4755386E2,0E0,6.3763905E-1,5.719021E-3,3.458786E-2,2.466438E1,0E0,1.2508095E1,0E0,2.180605E0,2.655486E0,0E0,0E0,0E0,0E0,0E0,6.1560287E0,2.169808E0,2.333133E1,1.5868063E0,0E0,0E0,0E0,7.394028E-1,1.5734811E0,1.5098572E0,3.9335032E0,2.7425385E-1,0E0,4.188174E-1,7.139206E-3,1.0606928E0,8.986001E-1,0E0,0E0,0E0,0E0,0E0,0E0,0E0,0E0,0E0,0E0,0E0,0E0,0E0,0E0,0E0,0E0,0E0,0E0,0E0,0E0,0E0,0E0,0E0,0E0,0E0,0E0],"parents":[2147483647,0,0,1,1,2,2,3,3,4,4,5,5,6,6,7,7,8,8,9,9,11,11,13,13,16,16,17,17,22,22,23,23,24,24,25,25,26,26,27,27,28,28,29,29,30,30,31,31,33,33,35,35,36,36,38,38,40,40,41,41,42,42,43,43,45,45,47,47,48,48,54,54,55,55,56,56,57,57,61,61,62,62,63,63,64,64,65,65,67,67,68,68,69,69,70,70],"right_children":[2,4,6,8,10,12,14,16,18,20,-1,22,-1,24,-1,-1,26,28,-1,-1,-1,-1,30,32,34,36,38,40,42,44,46,48,-1,50,-1,52,54,-1,56,-1,58,60,62,64,-1,66,-1,68,70,-1,-1,-1,-1,-1,72,74,76,78,-1,-1,-1,80,82,84,86,88,-1,90,92,94,96,-1,-1,-1,-1,-1,-1,-1,-1,-1,-1,-1,-1,-1,-1,-1,-1,-1,-1,-1,-1,-1,-1,-1,-1,-1,-1],"split_conditions":[1E0,1E0,1E0,3E0,2E0,1E0,2E0,1E0,1E0,1E0,6.710953E-2,2E0,6.670506E-2,4.228457E-1,6.7569144E-2,-4.3252073E-2,5.9519035E-1,7.8957915E-1,6.8092436E-2,-4.3396503E-2,6.8000115E-2,-4.3372042E-2,5.290581E-1,1E0,6.8537074E-1,3.8877755E-1,2E0,5.4709417E-1,8.056112E-1,3E0,7.55511E-1,1.3226452E-1,6.461538E-2,1E0,6.70932E-2,3.6072144E-1,2E0,-4.2916074E-2,7.6753503E-1,-4.3697692E-2,7.47495E-1,7.975952E-1,8.537074E-1,1.6032064E-1,6.6117145E-2,3E0,6.33754E-2,5.01002E-2,2.4248497E-1,3.8528536E-2,6.3610256E-2,-4.3452702E-2,-3.3232614E-2,-4.2704288E-2,5.330661E-1,6.533066E-1,9.1182363E-1,7.334669E-1,-2.9377285E-2,-2.1376357E-4,2.0271875E-3,8.296593E-1,8.6773545E-1,1.1623246E-1,1.6833667E-1,5.791583E-1,6.3565694E-2,2.2044087E-2,9.018036E-2,2.0841683E-1,3.6472946E-1,-2.0121641E-2,-9.859896E-3,-3.2870672E-3,2.9427125E-3,2.6017599E-2,4.3101918E-2,-1.6846564E-2,7.5882836E-3,1.0219635E-2,3.5600122E-2,-4.743285E-3,1.99243E-2,-3.753227E-2,-2.1199789E-2,2.8098188E-2,-7.4233282E-3,2.3601566E-2,3.3819925E-2,-6.5836575E-5,-1.2673474E-2,-3.2121923E-2,-1.9679978E-2,4.4803205E-3,-8.864758E-3,1.571829E-2,5.0815744E-3],"split_indices":[1,0,2,3,3,0,3,2,2,2,0,3,0,5,0,0,5,5,0,0,0,0,5,0,5,5,3,5,5,3,5,5,0,0,0,5,3,0,5,0,5,5,5,5,0,3,0,5,5,0,0,0,0,0,5,5,5,5,0,0,0,5,5,5,5,5,0,5,5,5,5,0,0,0,0,0,0,0,0,0,0,0,0,0,0,0,0,0,0,0,0,0,0,0,0,0,0],"split_type":[0,0,0,0,0,0,0,0,0,0,0,0,0,0,0,0,0,0,0,0,0,0,0,0,0,0,0,0,0,0,0,0,0,0,0,0,0,0,0,0,0,0,0,0,0,0,0,0,0,0,0,0,0,0,0,0,0,0,0,0,0,0,0,0,0,0,0,0,0,0,0,0,0,0,0,0,0,0,0,0,0,0,0,0,0,0,0,0,0,0,0,0,0,0,0,0,0],"sum_hessian":[7.644484E3,5.9250503E3,1.7194337E3,5.098975E3,8.260753E2,5.0252264E2,1.216911E3,4.6521475E3,4.4682776E2,1.7104276E2,6.5503253E2,4.0198996E2,1.00532684E2,2.5266745E2,9.642436E2,2.9149028E3,1.7372445E3,1.2787672E2,3.1895105E2,4.8729042E1,1.22313705E2,7.576632E1,3.2622363E2,1.0660352E2,1.4606392E2,1.0342894E3,7.02955E2,9.9446625E1,2.843009E1,1.7399765E2,1.52226E2,8.662492E1,1.9978601E1,6.592811E1,8.013581E1,6.8200085E2,3.5228864E2,1.6980695E2,5.331481E2,6.8156364E1,3.1290262E1,3.1555195E0,2.527457E1,1.3675854E2,3.72391E1,7.512876E1,7.709723E1,2.5672186E1,6.0952736E1,5.088187E1,1.5046239E1,6.335118E2,4.8489056E1,9.242334E1,2.598653E2,2.1794771E2,3.1520035E2,2.7511976E1,3.7782857E0,1.337002E0,1.8185174E0,5.7829127E0,1.9491657E1,4.349083E1,9.326772E1,6.0330128E1,1.4798631E1,9.27898E0,1.6393206E1,2.1739864E1,3.921287E1,1.8134961E2,7.851567E1,7.697422E1,1.409735E2,1.9175594E2,1.2344441E2,2.544675E1,2.0652251E0,2.979297E0,2.8036156E0,2.2773242E0,1.7214333E1,3.1588102E1,1.1902727E1,1.9277711E0,9.133995E1,1.4904753E1,4.5425377E1,3.735774E0,5.543206E0,8.084845E0,8.308361E0,1.4563222E1,7.176642E0,2.8032503E1,1.1180367E1],"tree_param":{"num_deleted":"0","num_feature":"6","num_nodes":"97","size_leaf_vector":"1"}},{"base_weights":[-1.7331172E-2,-5.07749E-1,1.6325207E0,-9.121938E-1,1.9483522E0,7.819641E-1,1.9760773E0,-1.3944123E0,-2.0261936E-1,1.4245836E0,6.497771E-2,4.26016E-1,6.433346E-2,1.8061132E0,2.10497E0,-4.2618796E-2,-1.3605434E0,-6.673264E-1,4.7231224E-1,1.2514953E-2,4.2949885E-2,-3.164978E-1,1.0504353E0,1.6070741E0,6.264484E-2,1.9250057E0,6.544582E-2,-4.2323634E-2,-3.8360167E-2,-7.970617E-1,2.650643E-1,-5.903335E-1,1.5317976E0,-8.1698173E-1,9.297951E-1,1.6164522E-1,4.8849173E-2,4.41324E-2,6.392928E-2,1.6882622E0,6.433421E-2,-8.60501E-1,-4.1835037E-1,-7.24979E-1,1.7428349E0,-7.953526E-1,1.9240754E-2,1.0930755E0,1.8134215E0,-1.000829E0,-1.6637965E-1,-7.3695564E-1,1.2419947E0,-9.451992E-1,9.898496E-1,4.6959843E-2,6.217989E-2,-7.979561E-1,-9.0298015E-1,-8.195957E-1,1.6489602E0,-8.615943E-1,1.18862875E-1,7.827811E-1,1.8374172E0,-4.2038828E-2,-8.1600416E-1,-7.3699385E-1,1.4501953E0,-1.7242222E-1,1.6583259E0,1.9895025E0,1.7168983E0,-4.6449956E-1,-1.013144E0,-7.0678E-1,1.1392533E0,-2.6038675E-2,2.6456441E-3,7.381221E-1,1.5222486E0,-1.0169209E0,5.6490325E-3,3.1994605E-1,1.4251379E0,-2.4757145E-2,-1.1880631E-2,-2.7497096E-2,-1.4021298E-2,-2.761759E-2,-2.7864375E-3,2.0652698E-2,5.5534508E-2,-2.7449938E-2,-8.825328E-3,-2.1328222E-2,4.2293217E-2,-8.1452343E-4,3.331905E-2,5.6070123E-2,5.0667846E-3,5.4630814E-3,-2.4474435E-2,-2.5481554E-2,-1.1857116E-2,-2.6243811E-2,4.405212E-3,1.7608538E-2,5.0205156E-2,-2.783687E-2,7.563723E-3,3.1148117E-2,5.208177E-2,2.6018744E-2,6.0969815E-2,5.4759208E-2,4.6539504E-2,-1.8588834E-2,-2.5841065E-3,-3.797719E-2,-2.8711218E-2,-1.3208712E-2,-3.337934E-2,7.940628E-3,4.5721516E-2,-2.3665112E-2,4.0568344E-2,4.886213E-2,2.423777E-2,-3.6721263E-2,-2.4017313E-2,-1.0625009E-2,4.636928E-2,1.0017427E-2,4.9522433E-2],"categories":[],"categories_nodes":[],"categories_segments":[],"categories_sizes":[],"default_left":[0,0,0,0,0,0,0,0,0,0,0,0,0,0,0,0,0,0,0,0,0,0,0,0,0,0,0,0,0,0,0,0,0,0,0,0,0,0,0,0,0,0,0,0,0,0,0,0,0,0,0,0,0,0,0,0,0,0,0,0,0,0,0,0,0,0,0,0,0,0,0,0,0,0,0,0,0,0,0,0,0,0,0,0,0,0,0,0,0,0,0,0,0,0,0,0,0,0,0,0,0,0,0,0,0,0,0,0,0,0,0,0,0,0,0,0,0,0,0,0,0,0,0,0,0,0,0,0,0,0,0,0,0,0,0],"id":6,"left_children":[1,3,5,7,9,11,13,15,17,19,-1,21,-1,23,25,-1,27,29,31,-1,-1,33,35,37,-1,39,-1,-1,-1,41,43,45,47,49,51,53,-1,-1,-1,55,-1,57,59,61,63,65,67,69,71,73,75,77,79,81,83,-1,-1,85,87,89,91,93,95,97,99,101,103,105,107,109,111,113,115,117,119,121,123,-1,-1,125,127,129,-1,131,133,-1,-1,-1,-1,-1,-1,-1,-1,-1,-1,-1,-1,-1,-1,-1,-1,-1,-1,-1,-1,-1,-1,-1,-1,-1,-1,-1,-1,-1,-1,-1,-1,-1,-1,-1,-1,-1,-1,-1,-1,-1,-1,-1,-1,-1,-1,-1,-1,-1,-1],"loss_changes":[6.1505137E3,5.8225435E3,5.0743408E2,1.7214766E3,9.136255E1,2.4292459E2,2.336377E1,7.270508E-1,6.392585E2,1.1583557E0,0E0,1.8573712E2,0E0,2.70625E1,5.4333496E0,0E0,3.6699219E0,1.4620056E2,9.3679443E2,0E0,0E0,1.1517971E2,1.11420364E2,1.9807495E1,0E0,7.663025E0,0E0,0E0,0E0,2.5099915E1,2.1804074E2,5.197177E1,4.9482117E1,1.5551933E1,2.8508064E1,8.049218E1,0E0,0E0,0E0,1.9147034E0,0E0,1.6884766E0,1.2908853E2,1.0412228E1,3.985962E0,4.805954E0,1.15353546E2,1.18573944E2,8.7005615E-1,2.0481873E-1,2.20797E1,1.0486393E0,5.235649E0,3.252819E0,1.4162052E1,0E0,0E0,3.789032E0,2.723175E0,9.428261E0,3.651291E0,2.0668602E0,1.5292114E1,1.9153476E0,2.5111542E0,1.7712362E0,3.9168854E0,8.624416E0,6.1218033E0,1.6899994E1,3.7114868E0,2.2256775E0,2.2317505E-1,1.8973994E-1,1.9405365E-1,1.8834248E0,2.6959047E0,0E0,0E0,1.7981346E1,8.137436E-1,6.1400604E-1,0E0,1.7926638E1,6.85828E0,0E0,0E0,0E0,0E0,0E0,0E0,0E0,0E0,0E0,0E0,0E0,0E0,0E0,0E0,0E0,0E0,0E0,0E0,0E0,0E0,0E0,0E0,0E0,0E0,0E0,0E0,0E0,0E0,0E0,0E0,0E0,0E0,0E0,0E0,0E0,0E0,0E0,0E0,0E0,0E0,0E0,0E0,0E0,0E0,0E0,0E0,0E0,0E0,0E0,0E0],"parents":[2147483647,0,0,1,1,2,2,3,3,4,4,5,5,6,6,7,7,8,8,9,9,11,11,13,13,14,14,16,16,17,17,18,18,21,21,22,22,23,23,25,25,29,29,30,30,31,31,32,32,33,33,34,34,35,35,39,39,41,41,42,42,43,43,44,44,45,45,46,46,47,47,48,48,49,49,50,50,51,51,52,52,53,53,54,54,57,57,58,58,59,59,60,60,61,61,62,62,63,63,64,64,65,65,66,66,67,67,68,68,69,69,70,70,71,71,72,72,73,73,74,74,75,75,76,76,79,79,80,80,81,81,83,83,84,84],"right_children":[2,4,6,8,10,12,14,16,18,20,-1,22,-1,24,26,-1,28,30,32,-1,-1,34,36,38,-1,40,-1,-1,-1,42,44,46,48,50,52,54,-1,-1,-1,56,-1,58,60,62,64,66,68,70,72,74,76,78,80,82,84,-1,-1,86,88,90,92,94,96,98,100,102,104,106,108,110,112,114,116,118,120,122,124,-1,-1,126,128,130,-1,132,134,-1,-1,-1,-1,-1,-1,-1,-1,-1,-1,-1,-1,-1,-1,-1,-1,-1,-1,-1,-1,-1,-1,-1,-1,-1,-1,-1,-1,-1,-1,-1,-1,-1,-1,-1,-1,-1,-1,-1,-1,-1,-1,-1,-1,-1,-1,-1,-1,-1,-1],"split_conditions":[1E0,1E0,1E0,1E0,1E0,1E0,4.268537E-1,6.6E-1,5.991984E-1,2.2E-1,6.497771E-2,5.8E-1,6.433346E-2,6.8E-1,4.6E-1,-4.2618796E-2,6.272545E-1,9.2E-1,6.2E-1,1.2514953E-2,4.2949885E-2,7.1943885E-1,3.9278555E-1,1E0,6.264484E-2,7.234469E-1,6.544582E-2,-4.2323634E-2,-3.8360167E-2,8.2E-1,3.6072144E-1,5.2E-1,7.6753503E-1,5.751503E-1,2.6E-1,7.6E-1,4.8849173E-2,4.41324E-2,6.392928E-2,1E0,6.433421E-2,4.6E-1,4.8296592E-1,3.026052E-1,3.807615E-1,6.1122245E-1,8.7174344E-1,7.4E-1,8.496994E-1,1.4028056E-2,4.6E-1,9.6192384E-1,4E-1,3.6072144E-1,1.523046E-1,4.6959843E-2,6.217989E-2,4.4E-1,5.831663E-1,4.1282564E-1,8.4E-1,1E0,9.8E-1,9.6E-1,5.9118235E-1,4.8E-1,5E-1,8.3767533E-1,5.4E-1,6.6E-1,6.1523044E-1,6.4E-1,8.4E-1,5E-1,9.819639E-2,6.6533065E-1,6.1122245E-1,-2.6038675E-2,2.6456441E-3,8.296593E-1,9.539078E-1,1.5831663E-1,5.6490325E-3,9.4E-1,8E-1,-2.4757145E-2,-1.1880631E-2,-2.7497096E-2,-1.4021298E-2,-2.761759E-2,-2.7864375E-3,2.0652698E-2,5.5534508E-2,-2.7449938E-2,-8.825328E-3,-2.1328222E-2,4.2293217E-2,-8.1452343E-4,3.331905E-2,5.6070123E-2,5.0667846E-3,5.4630814E-3,-2.4474435E-2,-2.5481554E-2,-1.1857116E-2,-2.6243811E-2,4.405212E-3,1.7608538E-2,5.0205156E-2,-2.783687E-2,7.563723E-3,3.1148117E-2,5.208177E-2,2.6018744E-2,6.0969815E-2,5.4759208E-2,4.6539504E-2,-1.8588834E-2,-2.5841065E-3,-3.797719E-2,-2.8711218E-2,-1.3208712E-2,-3.337934E-2,7.940628E-3,4.5721516E-2,-2.3665112E-2,4.0568344E-2,4.886213E-2,2.423777E-2,-3.6721263E-2,-2.4017313E-2,-1.0625009E-2,4.636928E-2,1.0017427E-2,4.9522433E-2],"split_indices":[1,0,2,2,2,0,5,4,5,4,0,4,0,4,4,0,5,4,4,0,0,5,5,0,0,5,0,0,0,4,5,4,5,5,4,4,0,0,0,0,0,4,5,5,5,5,5,4,5,5,4,5,4,5,5,0,0,4,5,5,4,4,4,4,5,4,4,5,4,4,5,4,4,4,5,5,5,0,0,5,5,5,0,4,4,0,0,0,0,0,0,0,0,0,0,0,0,0,0,0,0,0,0,0,0,0,0,0,0,0,0,0,0,0,0,0,0,0,0,0,0,0,0,0,0,0,0,0,0,0,0,0,0,0,0],"split_type":[0,0,0,0,0,0,0,0,0,0,0,0,0,0,0,0,0,0,0,0,0,0,0,0,0,0,0,0,0,0,0,0,0,0,0,0,0,0,0,0,0,0,0,0,0,0,0,0,0,0,0,0,0,0,0,0,0,0,0,0,0,0,0,0,0,0,0,0,0,0,0,0,0,0,0,0,0,0,0,0,0,0,0,0,0,0,0,0,0,0,0,0,0,0,0,0,0,0,0,0,0,0,0,0,0,0,0,0,0,0,0,0,0,0,0,0,0,0,0,0,0,0,0,0,0,0,0,0,0,0,0,0,0,0,0],"sum_hessian":[7.599491E3,5.85869E3,1.7408011E3,5.0308853E3,8.278044E2,5.0178607E2,1.2390151E3,2.9947341E3,2.0361514E3,2.4516248E2,5.826419E2,3.9888925E2,1.02896835E2,5.408445E2,6.981706E2,1.665053E3,1.3296812E3,1.2058827E3,8.302686E2,2.1289663E0,2.4303351E2,1.8243912E2,2.1645012E2,3.21009E2,2.198355E2,2.1616739E2,4.8200317E2,8.139351E2,5.15746E2,1.0587155E3,1.4716731E2,4.1473715E2,4.155315E2,1.304127E2,5.2026413E1,8.5786476E1,1.3066365E2,2.5787735E2,6.3131668E1,1.08172516E2,1.0799488E2,9.0572235E2,1.5299306E2,8.8431435E1,5.8735878E1,3.1012692E2,1.0461021E2,1.6436308E2,2.5116841E2,1.01260254E2,2.9152449E1,7.9930615E0,4.403335E1,3.6656307E1,4.913017E1,8.5803925E1,2.2368587E1,3.7434045E2,5.313819E2,1.2863063E2,2.4362438E1,7.609143E1,1.2340004E1,6.099487E0,5.263639E1,8.356078E0,3.0177084E2,6.875784E1,3.5852364E1,5.0962296E1,1.1340079E2,8.19891E1,1.6917932E2,3.1419852E0,9.811826E1,2.0942879E1,8.209571E0,6.8531656E0,1.1398962E0,1.7036657E1,2.6996695E1,3.457165E1,2.084656E0,2.0033644E1,2.9096525E1,3.4956024E2,2.4780203E1,5.142349E2,1.7146984E1,1.1270181E2,1.5928811E1,5.002425E0,1.9360012E1,6.898609E1,7.10534E0,7.785026E0,4.5549784E0,2.0218596E0,4.077627E0,5.1540524E1,1.0958695E0,7.072133E0,1.2839457E0,2.7864618E2,2.3124676E1,5.9492516E1,9.265331E0,8.114137E0,2.7738226E1,1.7908602E1,3.305369E1,1.42321205E1,9.916867E1,3.794959E0,7.819414E1,9.6183174E1,7.299614E1,1.7761219E0,1.3658634E0,1.3905599E1,8.421267E1,1.3900602E1,7.042276E0,3.0241525E0,5.185418E0,4.805199E0,1.2231458E1,2.2380207E1,4.616487E0,1.5282638E1,1.9289013E1,1.3383815E1,6.6498294E0,5.4099402E0,2.3686586E1],"tree_param":{"num_deleted":"0","num_feature":"6","num_nodes":"135","size_leaf_vector":"1"}},{"base_weights":[-5.620716E-3,-4.873773E-1,1.5817311E0,-8.891236E-1,1.8884671E0,7.70661E-1,1.9102111E0,-1.1157897E0,1.3852725E0,1.1165712E0,6.273336E-2,4.2094022E-1,6.2197708E-2,1.1798496E0,6.3109405E-2,-4.2171128E-2,-6.4110404E-1,-7.3077047E-1,6.5868974E-2,-4.337897E-2,6.3262016E-2,-4.2960137E-2,8.247762E-1,4.008308E-1,1.8334266E0,-1.1892622E0,1.4606343E-1,-1.3258195E0,2.460643E-1,-6.8275265E-2,1.6478022E0,-4.8066333E-2,6.075401E-2,1.3892696E0,6.255024E-2,-1.3942735E0,-7.566274E-1,-4.251956E-2,6.370338E-1,-4.2119972E-2,-7.041094E-1,-2.0489529E-1,4.1856214E-1,-6.3704026E-1,6.344716E-2,1.1640562E0,1.8904426E0,-4.3293947E-1,3.090641E-1,3.751796E-2,5.7164684E-2,-4.275285E-2,-1.1663735E0,-4.2018674E-2,-5.315861E-1,1.4749146E-1,1.0215243E0,-1.0794328E-2,-2.3587383E-2,1.0038319E-2,-2.0135699E-2,6.387873E-1,3.1043217E-1,-1.0935827E0,-1.478238E-1,9.368381E-1,5.9480246E-2,4.7729887E-2,6.016118E-2,-2.6402563E-2,-2.8347522E-1,9.1827795E-2,4.6736097E-1,-4.0716205E-2,-3.2294877E-2,-2.3481812E-2,-1.1143232E-2,-4.8600887E-3,8.109006E-3,2.2902364E-2,3.7078414E-2,9.789149E-3,2.7927913E-2,-1.7162312E-2,1.4712146E-2,-4.1084822E-2,-2.9245492E-2,-8.426615E-3,1.6419783E-3,3.4577906E-2,2.4931328E-2,-6.1619403E-3,-1.8196268E-2,1.4536184E-2,-1.3317753E-2,2.1494051E-2,5.2687027E-3],"categories":[],"categories_nodes":[],"categories_segments":[],"categories_sizes":[],"default_left":[0,0,0,0,0,0,0,0,0,0,0,0,0,0,0,0,0,0,0,0,0,0,0,0,0,0,0,0,0,0,0,0,0,0,0,0,0,0,0,0,0,0,0,0,0,0,0,0,0,0,0,0,0,0,0,0,0,0,0,0,0,0,0,0,0,0,0,0,0,0,0,0,0,0,0,0,0,0,0,0,0,0,0,0,0,0,0,0,0,0,0,0,0,0,0,0,0],"id":7,"left_children":[1,3,5,7,9,11,13,15,17,19,-1,21,-1,23,-1,-1,25,27,-1,-1,-1,-1,29,31,33,35,37,39,41,43,45,47,-1,49,-1,51,53,-1,55,-1,57,59,61,63,-1,65,67,69,71,-1,-1,-1,73,-1,75,77,79,-1,-1,-1,-1,81,83,85,87,89,-1,-1,-1,-1,91,93,95,-1,-1,-1,-1,-1,-1,-1,-1,-1,-1,-1,-1,-1,-1,-1,-1,-1,-1,-1,-1,-1,-1,-1,-1],"loss_changes":[5.783892E3,5.540006E3,4.6769922E2,2.560546E3,1.2899146E2,2.3113486E2,1.745E2,6.2038135E2,7.73774E2,4.5236554E2,0E0,3.0255814E2,0E0,1.3397934E2,0E0,0E0,7.395875E2,7.3243965E1,0E0,0E0,0E0,0E0,2.436346E2,8.904531E1,1.3149261E1,8.8552E1,5.4153674E2,2.808197E0,3.8455105E0,1.9984888E2,1.8042175E1,1.3404955E1,0E0,1.5485916E0,0E0,3.144287E0,4.6646683E1,0E0,1.00869385E2,0E0,2.0585537E-2,3.7575967E0,6.420207E-1,2.8335217E1,0E0,9.342033E0,7.069397E-1,2.884141E0,1.699336E0,0E0,0E0,0E0,3.161621E-2,0E0,9.520142E0,9.061914E0,1.56840515E1,0E0,0E0,0E0,0E0,6.707792E-1,4.348611E0,8.219452E-1,1.7065868E0,1.611824E-1,0E0,0E0,0E0,0E0,7.9903936E-1,4.9702773E0,1.9863496E0,0E0,0E0,0E0,0E0,0E0,0E0,0E0,0E0,0E0,0E0,0E0,0E0,0E0,0E0,0E0,0E0,0E0,0E0,0E0,0E0,0E0,0E0,0E0,0E0],"parents":[2147483647,0,0,1,1,2,2,3,3,4,4,5,5,6,6,7,7,8,8,9,9,11,11,13,13,16,16,17,17,22,22,23,23,24,24,25,25,26,26,27,27,28,28,29,29,30,30,31,31,33,33,35,35,36,36,38,38,40,40,41,41,42,42,43,43,45,45,46,46,47,47,48,48,52,52,54,54,55,55,56,56,61,61,62,62,63,63,64,64,65,65,70,70,71,71,72,72],"right_children":[2,4,6,8,10,12,14,16,18,20,-1,22,-1,24,-1,-1,26,28,-1,-1,-1,-1,30,32,34,36,38,40,42,44,46,48,-1,50,-1,52,54,-1,56,-1,58,60,62,64,-1,66,68,70,72,-1,-1,-1,74,-1,76,78,80,-1,-1,-1,-1,82,84,86,88,90,-1,-1,-1,-1,92,94,96,-1,-1,-1,-1,-1,-1,-1,-1,-1,-1,-1,-1,-1,-1,-1,-1,-1,-1,-1,-1,-1,-1,-1,-1],"split_conditions":[1E0,1E0,1E0,3E0,2E0,1E0,2E0,1E0,1E0,1E0,6.273336E-2,2E0,6.2197708E-2,5.8E-1,6.3109405E-2,-4.2171128E-2,7E-1,7.2E-1,6.5868974E-2,-4.337897E-2,6.3262016E-2,-4.2960137E-2,6E-1,1E0,7.4E-1,5.4E-1,2E0,6.6E-1,8E-1,3E0,7.4E-1,3.8E-1,6.075401E-2,1E0,6.255024E-2,5E-1,2E0,-4.251956E-2,8.4E-1,-4.2119972E-2,6.8E-1,7.6E-1,8.6E-1,4.2E-1,6.344716E-2,3E0,8.2E-1,2.6E-1,4.6E-1,3.751796E-2,5.7164684E-2,-4.275285E-2,2E0,-4.2018674E-2,6E-1,7.4E-1,9.2E-1,-1.0794328E-2,-2.3587383E-2,1.0038319E-2,-2.0135699E-2,8.4E-1,8.8E-1,2.6E-1,5.2E-1,6.4E-1,5.9480246E-2,4.7729887E-2,6.016118E-2,-2.6402563E-2,3.6E-1,4.2E-1,5.2E-1,-4.0716205E-2,-3.2294877E-2,-2.3481812E-2,-1.1143232E-2,-4.8600887E-3,8.109006E-3,2.2902364E-2,3.7078414E-2,9.789149E-3,2.7927913E-2,-1.7162312E-2,1.4712146E-2,-4.1084822E-2,-2.9245492E-2,-8.426615E-3,1.6419783E-3,3.4577906E-2,2.4931328E-2,-6.1619403E-3,-1.8196268E-2,1.4536184E-2,-1.3317753E-2,2.1494051E-2,5.2687027E-3],"split_indices":[1,0,2,3,3,0,3,2,2,2,0,3,0,4,0,0,4,4,0,0,0,0,4,0,4,4,3,4,4,3,4,4,0,0,0,4,3,0,4,0,4,4,4,4,0,3,4,4,4,0,0,0,3,0,4,4,4,0,0,0,0,4,4,4,4,4,0,0,0,0,4,4,4,0,0,0,0,0,0,0,0,0,0,0,0,0,0,0,0,0,0,0,0,0,0,0,0],"split_type":[0,0,0,0,0,0,0,0,0,0,0,0,0,0,0,0,0,0,0,0,0,0,0,0,0,0,0,0,0,0,0,0,0,0,0,0,0,0,0,0,0,0,0,0,0,0,0,0,0,0,0,0,0,0,0,0,0,0,0,0,0,0,0,0,0,0,0,0,0,0,0,0,0,0,0,0,0,0,0,0,0,0,0,0,0,0,0,0,0,0,0,0,0,0,0,0,0],"sum_hessian":[7.561431E3,5.8014126E3,1.7600186E3,4.962841E3,8.3857196E2,5.0829706E2,1.2517214E3,4.513532E3,4.493086E2,1.757255E2,6.628465E2,4.0175665E2,1.06540405E2,2.6358725E2,9.881342E2,2.8009116E3,1.7126205E3,1.2444673E2,3.2486188E2,4.8919605E1,1.2680589E2,7.1436104E1,3.3032056E2,1.20989426E2,1.4259782E2,1.0092797E3,7.0334076E2,7.7114426E1,4.7332314E1,1.5886063E2,1.7145992E2,9.555263E1,2.5436798E1,5.3922314E1,8.867551E1,6.8327545E2,3.2600427E2,1.6764073E2,5.357E2,6.7382805E1,9.731619E0,1.3043913E1,3.42884E1,1.2658956E2,3.227107E1,5.921063E1,1.1224928E2,4.588784E1,4.9664787E1,4.520234E1,8.719974E0,5.9724927E2,8.602619E1,8.306768E1,2.4293658E2,2.3626521E2,2.994348E2,2.9108074E0,6.8208117E0,6.1781545E0,6.865759E0,9.675336E0,2.4613064E1,6.484245E1,6.1747112E1,4.8025074E1,1.1185556E1,3.524997E1,7.699931E1,1.0271314E1,3.5616528E1,2.160104E1,2.806375E1,2.302904E1,6.2997158E1,9.308001E1,1.4985658E2,6.7027596E1,1.6923761E2,1.3794426E2,1.6149057E2,5.6977925E0,3.9775436E0,3.8001356E0,2.0812927E1,1.633921E1,4.850324E1,3.7032803E1,2.4714306E1,1.2545226E1,3.5479847E1,3.0001656E1,5.6148715E0,1.251963E1,9.081409E0,1.4352576E1,1.3711172E1],"tree_param":{"num_deleted":"0","num_feature":"6","num_nodes":"97","size_leaf_vector":"1"}},{"base_weights":[-1.9951552E-2,-4.887121E-1,1.528873E0,-8.793093E-1,1.8296971E0,7.461029E-1,1.8448505E0,-1.3604093E0,-1.9767727E-1,1.3421198E0,6.0777202E-2,4.0853477E-1,6.022937E-2,1.658718E0,1.9595238E0,-4.1536435E-2,-1.3203813E0,-6.5362406E-1,4.5952156E-1,1.744319E-1,4.0615663E-2,-3.27376E-1,1.0046703E0,1.4700238E0,5.933305E-2,1.7799693E0,6.1162125E-2,-4.131736E-2,-3.6693983E-2,-7.755323E-1,2.4875987E-1,-6.074822E-1,1.4497705E0,2.535787E-2,-2.1879286E-2,-2.9072342E-2,5.6748664E-1,1.4864211E-1,1.5254141E0,1.3440006E0,5.9746455E-2,1.5572871E0,5.9336312E-2,-8.412734E-1,-3.8932893E-1,-7.5631636E-1,1.6275E0,-7.861282E-1,2.586541E-2,9.6889395E-1,1.7460989E0,-1.1865909E-1,1.3699832E0,-9.761297E-1,9.18921E-1,4.9423367E-2,1.3005607E0,4.0575255E-2,1.5119835E-3,4.2824112E-2,5.855954E-2,-8.564741E-1,-6.465574E-1,-8.007028E-1,1.4915982E0,-9.5760065E-1,1.052117E-1,1.6685205E0,4.345728E-3,-8.3537614E-1,-4.8514575E-1,-7.1309125E-1,1.3490769E0,-3.1574714E-1,1.5812209E0,1.8968468E0,1.6474006E0,-7.609765E-1,6.378872E-1,8.0011964E-1,4.730103E-2,-1.3343904E0,-6.1553067E-1,3.9057902E-1,1.402614E0,4.17953E-2,3.6593586E-1,-2.4494858E-2,-2.8769426E-2,-2.1695467E-2,1.8791148E-2,-2.693256E-2,-3.2235123E-3,1.6319325E-2,5.0762717E-2,-2.9803792E-2,-1.4478455E-2,-1.778465E-2,3.360664E-2,2.6886191E-2,5.2948788E-2,-2.857473E-3,-2.5616728E-2,-2.1256134E-2,4.0234257E-2,-2.4798011E-2,-6.3470025E-3,2.0345088E-2,5.0228804E-2,-2.7058193E-2,4.9156034E-3,2.44462E-2,4.8801888E-2,2.7897255E-2,5.97225E-2,1.7896451E-2,4.9872186E-2,-1.1239081E-2,-2.9738158E-2,2.746096E-3,3.7359897E-2,-1.7866867E-2,3.824732E-2,-1.0579937E-2,-4.1471478E-2,-2.8020253E-2,7.165231E-3,-2.1002859E-2,2.6926043E-2,2.1614907E-2,4.612225E-2,-3.29851E-3,1.8946903E-2],"categories":[],"categories_nodes":[],"categories_segments":[],"categories_sizes":[],"default_left":[0,0,0,0,0,0,0,0,0,0,0,0,0,0,0,0,0,0,0,0,0,0,0,0,0,0,0,0,0,0,0,0,0,0,0,0,0,0,0,0,0,0,0,0,0,0,0,0,0,0,0,0,0,0,0,0,0,0,0,0,0,0,0,0,0,0,0,0,0,0,0,0,0,0,0,0,0,0,0,0,0,0,0,0,0,0,0,0,0,0,0,0,0,0,0,0,0,0,0,0,0,0,0,0,0,0,0,0,0,0,0,0,0,0,0,0,0,0,0,0,0,0,0,0,0,0,0,0,0,0,0,0,0],"id":8,"left_children":[1,3,5,7,9,11,13,15,17,19,-1,21,-1,23,25,-1,27,29,31,33,-1,35,37,39,-1,41,-1,-1,-1,43,45,47,49,-1,-1,-1,51,53,55,57,-1,59,-1,61,63,65,67,69,71,73,75,77,79,81,83,-1,85,-1,-1,-1,-1,87,89,91,93,95,97,99,-1,101,103,105,107,109,111,113,115,117,119,121,-1,123,125,127,129,-1,131,-1,-1,-1,-1,-1,-1,-1,-1,-1,-1,-1,-1,-1,-1,-1,-1,-1,-1,-1,-1,-1,-1,-1,-1,-1,-1,-1,-1,-1,-1,-1,-1,-1,-1,-1,-1,-1,-1,-1,-1,-1,-1,-1,-1,-1,-1],"loss_changes":[5.4373877E3,5.207848E3,4.2899854E2,1.6134578E3,7.6614746E1,2.129925E2,2.3194824E1,9.589844E-1,6.107654E2,3.0653076E0,0E0,1.746452E2,0E0,2.5919434E1,7.196533E0,0E0,4.435791E0,1.325564E2,8.8320416E2,2.765707E0,0E0,1.03096596E2,9.773848E1,1.7354431E1,0E0,7.5352173E0,0E0,0E0,0E0,2.6591736E1,2.0072243E2,4.557895E1,6.0066956E1,0E0,0E0,0E0,4.1575012E1,7.3873764E1,1.6038208E0,2.6672363E0,0E0,3.262024E0,0E0,2.1253662E0,1.2197064E2,1.465797E1,3.4691162E0,4.2505646E0,8.852982E1,1.3225198E2,8.463745E-1,2.0634588E1,2.8314743E0,3.6643486E0,1.2359974E1,0E0,4.058975E0,0E0,0E0,0E0,0E0,2.6452026E0,7.244156E0,8.564323E0,4.4678535E0,6.812515E-1,1.2566624E1,2.8332672E0,0E0,3.5986633E0,1.9942732E1,3.1336937E0,5.9420586E0,1.558193E1,2.636078E0,7.1382446E0,1.6716919E0,1.6644125E0,6.385179E0,8.233479E0,0E0,2.927723E-1,5.4367256E0,1.47423935E1,1.2812881E0,0E0,8.4242433E-1,0E0,0E0,0E0,0E0,0E0,0E0,0E0,0E0,0E0,0E0,0E0,0E0,0E0,0E0,0E0,0E0,0E0,0E0,0E0,0E0,0E0,0E0,0E0,0E0,0E0,0E0,0E0,0E0,0E0,0E0,0E0,0E0,0E0,0E0,0E0,0E0,0E0,0E0,0E0,0E0,0E0,0E0,0E0,0E0,0E0,0E0],"parents":[2147483647,0,0,1,1,2,2,3,3,4,4,5,5,6,6,7,7,8,8,9,9,11,11,13,13,14,14,16,16,17,17,18,18,19,19,21,21,22,22,23,23,25,25,29,29,30,30,31,31,32,32,36,36,37,37,38,38,39,39,41,41,43,43,44,44,45,45,46,46,47,47,48,48,49,49,50,50,51,51,52,52,53,53,54,54,56,56,61,61,62,62,63,63,64,64,65,65,66,66,67,67,69,69,70,70,71,71,72,72,73,73,74,74,75,75,76,76,77,77,78,78,79,79,81,81,82,82,83,83,84,84,86,86],"right_children":[2,4,6,8,10,12,14,16,18,20,-1,22,-1,24,26,-1,28,30,32,34,-1,36,38,40,-1,42,-1,-1,-1,44,46,48,50,-1,-1,-1,52,54,56,58,-1,60,-1,62,64,66,68,70,72,74,76,78,80,82,84,-1,86,-1,-1,-1,-1,88,90,92,94,96,98,100,-1,102,104,106,108,110,112,114,116,118,120,122,-1,124,126,128,130,-1,132,-1,-1,-1,-1,-1,-1,-1,-1,-1,-1,-1,-1,-1,-1,-1,-1,-1,-1,-1,-1,-1,-1,-1,-1,-1,-1,-1,-1,-1,-1,-1,-1,-1,-1,-1,-1,-1,-1,-1,-1,-1,-1,-1,-1,-1,-1],"split_conditions":[1E0,1E0,1E0,1E0,1E0,1E0,3.807615E-1,6.272545E-1,5.991984E-1,2.2E-1,6.0777202E-2,5.8E-1,6.022937E-2,7.2E-1,4.6E-1,-4.1536435E-2,7.2E-1,9.2E-1,6E-1,3.3466932E-1,4.0615663E-2,5.8717436E-1,3.9278555E-1,1E0,5.933305E-2,6.813627E-1,6.1162125E-2,-4.131736E-2,-3.6693983E-2,8.2E-1,3.6072144E-1,5.2E-1,7.6753503E-1,2.535787E-2,-2.1879286E-2,-2.9072342E-2,4E-1,7.6E-1,8.4E-1,3.767535E-1,5.9746455E-2,1E0,5.9336312E-2,5.551102E-1,4.8296592E-1,2.8256512E-1,5.9118235E-1,9.4589174E-1,8.6773545E-1,7.4E-1,8.597194E-1,8.0961925E-1,4.6E-1,1.763527E-1,1.9438878E-1,4.9423367E-2,9.358717E-1,4.0575255E-2,1.5119835E-3,4.2824112E-2,5.855954E-2,6.6E-1,7.8E-1,4.0881762E-1,8.4E-1,1E0,9.8E-1,3.8476953E-1,4.345728E-3,6.1122245E-1,5E-1,8.216433E-1,9.1182363E-1,6.6E-1,7.6E-1,6.4E-1,8.6372745E-1,6.573146E-1,3E-1,7.054108E-1,4.730103E-2,1.8036071E-2,7E-1,8.4E-1,8E-1,4.17953E-2,9.579158E-1,-2.4494858E-2,-2.8769426E-2,-2.1695467E-2,1.8791148E-2,-2.693256E-2,-3.2235123E-3,1.6319325E-2,5.0762717E-2,-2.9803792E-2,-1.4478455E-2,-1.778465E-2,3.360664E-2,2.6886191E-2,5.2948788E-2,-2.857473E-3,-2.5616728E-2,-2.1256134E-2,4.0234257E-2,-2.4798011E-2,-6.3470025E-3,2.0345088E-2,5.0228804E-2,-2.7058193E-2,4.9156034E-3,2.44462E-2,4.8801888E-2,2.7897255E-2,5.97225E-2,1.7896451E-2,4.9872186E-2,-1.1239081E-2,-2.9738158E-2,2.746096E-3,3.7359897E-2,-1.7866867E-2,3.824732E-2,-1.0579937E-2,-4.1471478E-2,-2.8020253E-2,7.165231E-3,-2.1002859E-2,2.6926043E-2,2.1614907E-2,4.612225E-2,-3.29851E-3,1.8946903E-2],"split_indices":[1,0,2,2,2,0,5,5,5,4,0,4,0,4,4,0,4,4,4,5,0,5,5,0,0,5,0,0,0,4,5,4,5,0,0,0,4,4,4,5,0,0,0,5,5,5,5,5,5,4,5,5,4,5,5,0,5,0,0,0,0,4,4,5,4,4,4,5,0,5,4,5,5,4,4,4,5,5,4,5,0,5,4,4,4,0,5,0,0,0,0,0,0,0,0,0,0,0,0,0,0,0,0,0,0,0,0,0,0,0,0,0,0,0,0,0,0,0,0,0,0,0,0,0,0,0,0,0,0,0,0,0,0],"split_type":[0,0,0,0,0,0,0,0,0,0,0,0,0,0,0,0,0,0,0,0,0,0,0,0,0,0,0,0,0,0,0,0,0,0,0,0,0,0,0,0,0,0,0,0,0,0,0,0,0,0,0,0,0,0,0,0,0,0,0,0,0,0,0,0,0,0,0,0,0,0,0,0,0,0,0,0,0,0,0,0,0,0,0,0,0,0,0,0,0,0,0,0,0,0,0,0,0,0,0,0,0,0,0,0,0,0,0,0,0,0,0,0,0,0,0,0,0,0,0,0,0,0,0,0,0,0,0,0,0,0,0,0,0],"sum_hessian":[7.4871987E3,5.7481675E3,1.739031E3,4.919901E3,8.2826636E2,5.0107666E2,1.2379543E3,2.8836252E3,2.0362759E3,2.3991705E2,5.883493E2,3.9634506E2,1.04731606E2,4.7782874E2,7.601256E2,1.7778889E3,1.1057365E3,1.2022162E3,8.3405963E2,2.5451105E0,2.3737195E2,1.7757951E2,2.1876555E2,3.0377573E2,1.7405301E2,2.3987332E2,5.202523E2,6.8943964E2,4.1629675E2,1.0592557E3,1.4296039E2,4.0165674E2,4.324029E2,1.4979315E0,1.047179E0,1.0337024E2,7.420928E1,8.323106E1,1.3553448E2,2.4753706E2,5.6238678E1,1.17045105E2,1.22828224E2,9.041665E2,1.550893E2,8.294584E1,6.0014545E1,3.1310043E2,8.855632E1,1.6649214E2,2.6591077E2,4.0464077E1,3.374521E1,3.37222E1,4.9508858E1,8.375343E1,5.1781048E1,2.4587442E2,1.6626407E0,9.155058E1,2.5494522E1,8.3554065E2,6.862588E1,1.2772837E2,2.7360914E1,6.714647E1,1.5799371E1,5.8276825E1,1.7377224E0,2.6754773E2,4.555269E1,5.7118942E1,3.143738E1,5.389875E1,1.1259339E2,9.8004265E1,1.679065E2,2.1880985E1,1.858309E1,1.0279119E1,2.346609E1,1.5561312E1,1.8160887E1,2.4526188E1,2.4982672E1,4.666608E1,5.1149673E0,6.075533E2,2.2798735E2,6.5136795E1,3.4890804E0,1.1178454E2,1.5943834E1,5.4264016E0,2.1934513E1,6.1418137E1,5.7283325E0,9.607874E0,6.1914964E0,7.611842E0,5.066498E1,6.679508E0,2.6086823E2,4.1133286E1,4.419403E0,4.6048656E1,1.1070284E1,1.1271032E1,2.0166348E1,2.385785E1,3.0040901E1,7.3712196E0,1.0522217E2,9.640203E0,8.836406E1,2.937618E0,1.6496889E2,9.152926E0,1.2728059E1,1.0389333E1,8.193758E0,2.5446305E0,7.7344885E0,1.114363E0,1.4446949E1,1.3161546E1,4.999342E0,7.6616936E0,1.6864494E1,5.1692433E0,1.9813429E1,2.0422459E0,3.0727217E0],"tree_param":{"num_deleted":"0","num_feature":"6","num_nodes":"133","size_leaf_vector":"1"}},{"base_weights":[-1.0332024E-2,-4.704325E-1,1.4832594E0,-8.6037046E-1,1.7656078E0,7.3293006E-1,1.7875156E0,-1.084454E0,1.3550717E0,1.0011052E0,5.9106007E-2,-6.281348E-1,1.0363697E0,1.0660336E0,5.9428666E-2,-4.1202128E-2,-6.2737876E-1,-6.820112E-1,6.386241E-2,-4.3374125E-2,5.9360813E-2,-4.258809E-2,5.6400504E-2,4.206891E-1,1.5919048E0,3.0667013E-1,1.7108605E0,-1.1873491E0,9.2295974E-2,-1.2757925E0,2.8056645E-1,2.034866E-2,6.1016377E-2,1.2738798E0,5.8888372E-2,-1.0354614E-1,5.702133E-2,1.3498857E0,6.0231585E-2,-4.158385E-2,-8.0089766E-1,-4.215049E-2,5.4842454E-1,-4.1029345E-2,-5.875847E-1,-4.537457E-2,4.3227634E-1,-5.2047116E-1,5.734139E-2,1.0900918E0,5.897128E-2,-4.6100017E-1,2.1913351E-1,1.2275853E0,5.4841317E-2,-4.1362494E-2,-6.110559E-1,1.1619918E-1,9.2974126E-1,-5.3411303E-3,-2.056044E-2,3.2297322E-1,-3.5004893E-1,8.8531E-1,2.759915E-1,-9.740264E-1,-5.2892484E-2,8.838265E-1,5.5982567E-2,-2.5902092E-2,-3.111334E-1,-3.0051064E-2,3.8664624E-1,2.8265834E-2,4.3472257E-2,-2.6070088E-2,-1.3633797E-2,-4.4373665E-3,7.944122E-3,2.1220831E-2,3.335854E-2,2.8441395E-3,1.4935209E-2,-1.568463E-2,2.8594923E-3,1.4332588E-2,3.1808548E-2,-6.015806E-3,1.5822897E-2,-3.7908565E-2,-2.57253E-2,-7.940837E-3,1.948313E-3,2.1143792E-2,3.443191E-2,-6.35966E-3,-1.9243937E-2,8.341475E-3,-1.2096456E-2,9.253427E-3,1.432293E-2],"categories":[],"categories_nodes":[],"categories_segments":[],"categories_sizes":[],"default_left":[0,0,0,0,0,0,0,0,0,0,0,0,0,0,0,0,0,0,0,0,0,0,0,0,0,0,0,0,0,0,0,0,0,0,0,0,0,0,0,0,0,0,0,0,0,0,0,0,0,0,0,0,0,0,0,0,0,0,0,0,0,0,0,0,0,0,0,0,0,0,0,0,0,0,0,0,0,0,0,0,0,0,0,0,0,0,0,0,0,0,0,0,0,0,0,0,0,0,0,0,0],"id":9,"left_children":[1,3,5,7,9,11,13,15,17,19,-1,21,23,25,-1,-1,27,29,-1,-1,-1,-1,-1,31,33,35,37,39,41,43,45,47,-1,49,-1,51,-1,53,-1,-1,55,-1,57,-1,59,61,63,65,-1,67,-1,69,71,73,-1,-1,75,77,79,-1,-1,81,83,85,87,89,91,93,-1,-1,95,97,99,-1,-1,-1,-1,-1,-1,-1,-1,-1,-1,-1,-1,-1,-1,-1,-1,-1,-1,-1,-1,-1,-1,-1,-1,-1,-1,-1,-1],"loss_changes":[5.109381E3,4.9575425E3,3.984248E2,2.4046008E3,1.3009619E2,2.0998712E2,1.716604E2,5.7980615E2,7.0292847E2,4.3413495E2,0E0,1.8733377E2,1.4121939E2,1.2943863E2,0E0,0E0,6.8710956E2,7.0814224E1,0E0,0E0,0E0,0E0,0E0,1.2791484E2,2.3189636E1,8.0693344E1,1.2647217E1,7.254468E1,5.108883E2,4.0272064E0,2.3857071E0,1.6436766E2,0E0,1.3125473E1,0E0,1.1503231E1,0E0,1.7164078E0,0E0,0E0,3.514357E1,0E0,9.436853E1,0E0,3.0846953E-1,1.9202169E0,2.0742102E0,2.6458767E1,0E0,1.3895981E1,0E0,2.5791988E0,2.2085752E0,2.236168E0,0E0,0E0,9.651535E0,1.0629206E1,1.1548004E1,0E0,0E0,2.6440758E-1,7.6490223E-1,6.0115337E-2,3.1970491E0,1.0555954E0,1.5797756E0,2.9060059E0,0E0,0E0,1.0420959E0,2.6513991E0,7.669163E-2,0E0,0E0,0E0,0E0,0E0,0E0,0E0,0E0,0E0,0E0,0E0,0E0,0E0,0E0,0E0,0E0,0E0,0E0,0E0,0E0,0E0,0E0,0E0,0E0,0E0,0E0,0E0,0E0],"parents":[2147483647,0,0,1,1,2,2,3,3,4,4,5,5,6,6,7,7,8,8,9,9,11,11,12,12,13,13,16,16,17,17,23,23,24,24,25,25,26,26,27,27,28,28,29,29,30,30,31,31,33,33,35,35,37,37,40,40,42,42,44,44,45,45,46,46,47,47,49,49,51,51,52,52,53,53,56,56,57,57,58,58,61,61,62,62,63,63,64,64,65,65,66,66,67,67,70,70,71,71,72,72],"right_children":[2,4,6,8,10,12,14,16,18,20,-1,22,24,26,-1,-1,28,30,-1,-1,-1,-1,-1,32,34,36,38,40,42,44,46,48,-1,50,-1,52,-1,54,-1,-1,56,-1,58,-1,60,62,64,66,-1,68,-1,70,72,74,-1,-1,76,78,80,-1,-1,82,84,86,88,90,92,94,-1,-1,96,98,100,-1,-1,-1,-1,-1,-1,-1,-1,-1,-1,-1,-1,-1,-1,-1,-1,-1,-1,-1,-1,-1,-1,-1,-1,-1,-1,-1,-1],"split_conditions":[1E0,1E0,1E0,3E0,2E0,2E0,2E0,1E0,1E0,1E0,5.9106007E-2,1E0,6E-1,5.8E-1,5.9428666E-2,-4.1202128E-2,6.8E-1,7.2E-1,6.386241E-2,-4.3374125E-2,5.9360813E-2,-4.258809E-2,5.6400504E-2,3E0,8.2E-1,1E0,7.8E-1,5.2E-1,2E0,6.6E-1,8.2E-1,1E0,6.1016377E-2,3E0,5.8888372E-2,3.8E-1,5.702133E-2,1E0,6.0231585E-2,-4.158385E-2,2E0,-4.215049E-2,8.4E-1,-4.1029345E-2,6.8E-1,7.6E-1,8.6E-1,4.2E-1,5.734139E-2,1E0,5.897128E-2,2.6E-1,4.6E-1,6.8E-1,5.4841317E-2,-4.1362494E-2,5.8E-1,7.4E-1,9.2E-1,-5.3411303E-3,-2.056044E-2,7.4E-1,8E-1,8.4E-1,9E-1,2.6E-1,4.8E-1,7.4E-1,5.5982567E-2,-2.5902092E-2,3.6E-1,4.2E-1,5.4E-1,2.8265834E-2,4.3472257E-2,-2.6070088E-2,-1.3633797E-2,-4.4373665E-3,7.944122E-3,2.1220831E-2,3.335854E-2,2.8441395E-3,1.4935209E-2,-1.568463E-2,2.8594923E-3,1.4332588E-2,3.1808548E-2,-6.015806E-3,1.5822897E-2,-3.7908565E-2,-2.57253E-2,-7.940837E-3,1.948313E-3,2.1143792E-2,3.443191E-2,-6.35966E-3,-1.9243937E-2,8.341475E-3,-1.2096456E-2,9.253427E-3,1.432293E-2],"split_indices":[1,0,2,3,3,3,3,2,2,2,0,0,4,4,0,0,4,4,0,0,0,0,0,3,4,0,4,4,3,4,4,0,0,3,0,4,0,0,0,0,3,0,4,0,4,4,4,4,0,0,0,4,4,4,0,0,4,4,4,0,0,4,4,4,4,4,4,4,0,0,4,4,4,0,0,0,0,0,0,0,0,0,0,0,0,0,0,0,0,0,0,0,0,0,0,0,0,0,0,0,0],"split_type":[0,0,0,0,0,0,0,0,0,0,0,0,0,0,0,0,0,0,0,0,0,0,0,0,0,0,0,0,0,0,0,0,0,0,0,0,0,0,0,0,0,0,0,0,0,0,0,0,0,0,0,0,0,0,0,0,0,0,0,0,0,0,0,0,0,0,0,0,0,0,0,0,0,0,0,0,0,0,0,0,0,0,0,0,0,0,0,0,0,0,0,0,0,0,0,0,0,0,0,0,0],"sum_hessian":[7.433032E3,5.6830537E3,1.7499783E3,4.839687E3,8.4336676E2,5.0586597E2,1.2441123E3,4.395599E3,4.4408777E2,1.7929323E2,6.6407355E2,9.2024445E1,4.1384152E2,2.6441647E2,9.796958E2,2.69187E3,1.7037292E3,1.2227002E2,3.2181775E2,5.1045963E1,1.2824725E2,7.028076E1,2.1743681E1,1.9712825E2,2.1671327E2,1.2210193E2,1.4231454E2,9.5781494E2,7.4591425E2,7.542037E1,4.684965E1,1.5874548E2,3.8382763E1,1.1908067E2,9.763261E1,9.785469E1,2.4247238E1,6.672519E1,7.558935E1,6.3077563E2,3.2703934E2,1.7368527E2,5.72229E2,6.566859E1,9.7517805E0,1.510285E1,3.17468E1,1.2400562E2,3.4739853E1,9.612125E1,2.2959421E1,4.622238E1,5.1632313E1,5.597546E1,1.0749733E1,7.932433E1,2.47715E2,2.6882196E2,3.03407E2,2.4229105E0,7.3288703E0,6.809809E0,8.293041E0,6.946315E0,2.4800484E1,6.2396942E1,6.1608685E1,7.762648E1,1.8494766E1,1.1251138E1,3.497124E1,2.1086126E1,3.0546186E1,2.6755167E1,2.9220291E1,9.1857216E1,1.5585779E2,9.679518E1,1.7202678E2,1.3884018E2,1.6456683E2,3.6237075E0,3.1861017E0,5.8497953E0,2.443246E0,3.2069635E0,3.7393513E0,8.636098E0,1.6164387E1,1.5077642E1,4.7319298E1,2.1577824E1,4.003086E1,4.843716E1,2.9189322E1,2.816086E1,6.810382E0,1.168959E1,9.396536E0,1.8773205E1,1.1772982E1],"tree_param":{"num_deleted":"0","num_feature":"6","num_nodes":"101","size_leaf_vector":"1"}},{"base_weights":[-1.6176911E-2,-4.6969613E-1,1.4435645E0,-8.4967405E-1,1.7172165E0,6.1686206E-1,1.6532989E0,-1.067475E0,1.3160783E0,9.647623E-1,5.7427052E-2,2.8557983E-1,5.688429E-2,1.4464121E0,1.7754972E0,-1.2804493E0,-7.6755786E-1,1.2283096E0,1.6460977E0,5.8147985E-1,9.880997E-1,-4.9116847E-1,8.110127E-1,1.3237906E0,5.681019E-2,1.5451841E0,5.7461206E-2,-4.0878136E-2,-9.8674935E-1,-1.2661781E0,-3.233483E-1,6.747008E-1,1.2473394E0,1.2572864E0,6.3346125E-2,9.2848116E-1,1.1108599E-2,3.654364E-2,9.434479E-1,-1.2376871E0,9.2553085E-1,2.8609408E-3,1.1627872E0,1.1936783E0,5.847619E-2,1.3704941E0,1.818862E0,-1.3339013E0,-3.5993403E-1,-4.1083165E-2,-9.88578E-1,-4.175003E-2,-1.7002948E-1,9.271768E-1,-1.6848381E-1,1.1796595E0,1.4016389E0,6.5717036E-1,4.1536946E-2,-3.6659606E-3,3.517764E-2,-1.3192467E-2,2.4347828E-1,2.1242337E-1,9.629101E-1,-4.4970583E-2,-6.249804E-1,3.1651508E-3,1.1386284E0,-1.3507026E0,7.6962394E-1,1.1728748E0,2.000891E-3,1.0276848E0,1.7581298E0,1.2412516E0,5.7328153E-2,4.265815E-2,5.683848E-2,-4.2239044E-2,-1.0681964E0,-4.033615E-2,-2.1204582E-1,-1.3018392E0,-1.9289705E-1,-4.2310104E-1,-8.122801E-3,-1.1637271E-2,3.4263466E-2,-8.317304E-4,-8.667531E-3,1.226049E0,1.0147922E0,1.1963125E0,5.9938207E-2,1.0098054E0,-9.516758E-2,-9.495527E-3,1.5492548E-2,-7.3937625E-2,1.6144233E-2,1.0581746E0,8.097392E-1,-4.3140132E-2,7.902701E-1,-3.208166E-2,8.815362E-1,1.9641528E-1,1.2508265E0,-4.3210294E-2,-5.7932085E-1,-1.6180417E-2,1.2745596E0,8.0975056E-1,1.2201359E0,8.9210635E-1,1.0968504E0,6.118648E-1,5.603355E-2,1.0795549E0,5.5612765E-2,-3.9706104E-2,-1.2774157E-2,-1.3703946E-2,-5.84682E-4,-4.0325698E-2,-2.3228617E-2,-3.8532373E-2,1.2992669E-3,-3.0859262E-2,-1.172225E-3,-8.924801E-3,2.5411343E-4,3.816455E-2,2.9581012E-2,2.7021531E-2,4.6302263E-2,4.644655E-2,3.1110752E-2,4.3184265E-2,-2.756332E-3,-8.409122E-3,4.1766115E-3,3.807876E-4,-3.6401215E-3,2.9412169E-2,3.852891E-2,1.5423812E-3,2.5941864E-2,4.746091E-3,3.5155196E-2,3.281624E-2,1.7961125E-3,1.2893909E-2,-9.047138E-3,3.9026424E-2,1.8804112E-2,-2.8312476E-2,4.2167595E-3,-3.6013097E-2,2.8749848E-2,4.393254E-2,8.830516E-3,-2.486626E-2,3.5377804E-2,4.774117E-2,3.3072628E-2,2.9429445E-2,8.756501E-3,3.7200812E-2,2.8991822E-2,6.703608E-3,3.90552E-2,2.8339047E-2,3.7668146E-2],"categories":[],"categories_nodes":[],"categories_segments":[],"categories_sizes":[],"default_left":[0,0,0,0,0,0,0,0,0,0,0,0,0,0,0,0,0,0,0,0,0,0,0,0,0,0,0,0,0,0,0,0,0,0,0,0,0,0,0,0,0,0,0,0,0,0,0,0,0,0,0,0,0,0,0,0,0,0,0,0,0,0,0,0,0,0,0,0,0,0,0,0,0,0,0,0,0,0,0,0,0,0,0,0,0,0,0,0,0,0,0,0,0,0,0,0,0,0,0,0,0,0,0,0,0,0,0,0,0,0,0,0,0,0,0,0,0,0,0,0,0,0,0,0,0,0,0,0,0,0,0,0,0,0,0,0,0,0,0,0,0,0,0,0,0,0,0,0,0,0,0,0,0,0,0,0,0,0,0,0,0,0,0,0,0,0,0,0,0,0,0,0,0,0,0],"id":10,"left_children":[1,3,5,7,9,11,13,15,17,19,-1,21,-1,23,25,27,29,31,33,35,37,39,41,43,-1,45,-1,-1,47,49,51,53,55,57,-1,59,61,-1,63,65,67,69,71,73,-1,75,77,79,81,-1,83,-1,85,87,89,91,93,95,-1,-1,-1,-1,97,99,101,-1,103,105,107,109,111,113,-1,115,117,119,-1,-1,-1,-1,121,-1,123,125,127,129,131,-1,-1,-1,-1,133,135,137,-1,139,141,-1,-1,143,-1,145,147,-1,149,-1,151,153,155,-1,157,159,161,163,165,167,169,171,-1,173,-1,-1,-1,-1,-1,-1,-1,-1,-1,-1,-1,-1,-1,-1,-1,-1,-1,-1,-1,-1,-1,-1,-1,-1,-1,-1,-1,-1,-1,-1,-1,-1,-1,-1,-1,-1,-1,-1,-1,-1,-1,-1,-1,-1,-1,-1,-1,-1,-1,-1,-1,-1,-1,-1,-1],"loss_changes":[4.8631978E3,4.658819E3,3.008999E2,2.254106E3,1.2119751E2,1.494701E2,3.253076E1,2.7622314E2,1.06311035E1,9.8399353E-1,0E0,1.156272E2,0E0,2.60625E1,2.5016113E1,5.985254E1,3.992915E2,2.835205E0,1.34205475E1,2.449911E0,5.22995E-1,1.2228778E2,4.798123E1,3.121222E1,0E0,1.34422E1,0E0,0E0,1.2094214E2,2.3008057E1,1.5630188E2,3.088951E0,1.857727E0,2.975708E0,0E0,2.122388E0,7.0569885E-1,0E0,1.798378E0,1.1143234E1,7.8784676E0,5.520729E1,1.2220459E0,3.0401733E1,0E0,1.2121613E1,1.1187439E0,5.5561523E0,2.8875065E1,0E0,5.807936E1,0E0,3.4287766E1,3.483221E0,6.015002E-2,5.9158325E-1,9.510529E0,2.9626098E0,0E0,0E0,0E0,0E0,8.381546E-1,4.999833E-1,1.1399765E0,0E0,2.9064966E1,8.977673E0,3.1977043E0,4.957428E-1,1.3493261E1,1.0107269E0,0E0,1.5350342E0,8.49942E0,1.4866211E1,0E0,0E0,0E0,0E0,1.294368E1,0E0,8.252571E0,2.7068176E0,1.7402172E1,7.588629E1,2.458049E0,0E0,0E0,0E0,0E0,7.6519775E-1,2.1381264E0,2.5870361E0,0E0,3.6553402E0,2.2830953E-1,0E0,0E0,1.593158E-2,0E0,1.6723633E-1,2.32135E0,0E0,2.1061668E0,0E0,8.482127E-1,6.703054E-1,8.793259E-2,0E0,1.0969144E0,1.7619614E1,3.418316E0,1.0898726E1,2.6628113E0,4.829834E0,2.0355988E0,1.902622E0,0E0,2.0711823E0,0E0,0E0,0E0,0E0,0E0,0E0,0E0,0E0,0E0,0E0,0E0,0E0,0E0,0E0,0E0,0E0,0E0,0E0,0E0,0E0,0E0,0E0,0E0,0E0,0E0,0E0,0E0,0E0,0E0,0E0,0E0,0E0,0E0,0E0,0E0,0E0,0E0,0E0,0E0,0E0,0E0,0E0,0E0,0E0,0E0,0E0,0E0,0E0,0E0,0E0,0E0,0E0,0E0,0E0,0E0],"parents":[2147483647,0,0,1,1,2,2,3,3,4,4,5,5,6,6,7,7,8,8,9,9,11,11,13,13,14,14,15,15,16,16,17,17,18,18,19,19,20,20,21,21,22,22,23,23,25,25,28,28,29,29,30,30,31,31,32,32,33,33,35,35,36,36,38,38,39,39,40,40,41,41,42,42,43,43,45,45,46,46,47,47,48,48,50,50,52,52,53,53,54,54,55,55,56,56,57,57,62,62,63,63,64,64,66,66,67,67,68,68,69,69,70,70,71,71,73,73,74,74,75,75,80,80,82,82,83,83,84,84,85,85,86,86,91,91,92,92,93,93,95,95,96,96,99,99,101,101,102,102,104,104,106,106,107,107,108,108,110,110,111,111,112,112,113,113,114,114,115,115,116,116,117,117,119,119],"right_children":[2,4,6,8,10,12,14,16,18,20,-1,22,-1,24,26,28,30,32,34,36,38,40,42,44,-1,46,-1,-1,48,50,52,54,56,58,-1,60,62,-1,64,66,68,70,72,74,-1,76,78,80,82,-1,84,-1,86,88,90,92,94,96,-1,-1,-1,-1,98,100,102,-1,104,106,108,110,112,114,-1,116,118,120,-1,-1,-1,-1,122,-1,124,126,128,130,132,-1,-1,-1,-1,134,136,138,-1,140,142,-1,-1,144,-1,146,148,-1,150,-1,152,154,156,-1,158,160,162,164,166,168,170,172,-1,174,-1,-1,-1,-1,-1,-1,-1,-1,-1,-1,-1,-1,-1,-1,-1,-1,-1,-1,-1,-1,-1,-1,-1,-1,-1,-1,-1,-1,-1,-1,-1,-1,-1,-1,-1,-1,-1,-1,-1,-1,-1,-1,-1,-1,-1,-1,-1,-1,-1,-1,-1,-1,-1,-1,-1],"split_conditions":[1E0,1E0,2E0,3E0,2E0,1E0,3.6472946E-1,5.9519035E-1,8.056112E-1,2.6E-1,5.7427052E-2,4.1282564E-1,5.688429E-2,1E0,5.2E-1,8.4E-1,6E-1,2.4E-1,6.6E-1,5.791583E-1,1.3627255E-1,7.2E-1,4.6E-1,3E0,5.681019E-2,7.5951904E-1,5.7461206E-2,-4.0878136E-2,3.8877755E-1,5E-1,2E0,5.8717436E-1,5.7114226E-1,3.2E-1,6.3346125E-2,1.1623246E-1,6.773547E-1,3.654364E-2,1.6432865E-1,5.8E-1,7.8E-1,6.533066E-1,9.9599195E-1,8.2E-1,5.847619E-2,3E0,2.6E-1,3.026052E-1,2E0,-4.1083165E-2,8.9378756E-1,-4.175003E-2,7.6753503E-1,9.418838E-2,7.4348694E-1,4.3887776E-1,8E-1,2.8E-1,4.1536946E-2,-3.6659606E-3,3.517764E-2,-1.3192467E-2,2.2E-1,6.8E-1,7.2E-1,-4.4970583E-2,2.6653305E-1,1.8637274E-1,4.208417E-2,6.1523044E-1,3.2E-1,5.4E-1,2.000891E-3,1.2825651E-1,4.208417E-2,1E0,5.7328153E-2,4.265815E-2,5.683848E-2,-4.2239044E-2,9.6E-1,-4.033615E-2,9.2E-1,8.7174344E-1,2E0,7.6E-1,6.2E-1,-1.1637271E-2,3.4263466E-2,-8.317304E-4,-8.667531E-3,8.8E-1,9.2E-1,6.3126254E-1,5.9938207E-2,9.579158E-1,8.6372745E-1,-9.495527E-3,1.5492548E-2,1.523046E-1,1.6144233E-2,6.2E-1,7.4E-1,-4.3140132E-2,6.4E-1,-3.208166E-2,7.6E-1,2.6052104E-2,3.6472946E-1,-4.3210294E-2,3.4E-1,8.1362724E-1,4.2E-1,5.03006E-1,5.3707415E-1,1.0821643E-1,2.3246492E-1,9.4E-1,5.603355E-2,4E-1,5.5612765E-2,-3.9706104E-2,-1.2774157E-2,-1.3703946E-2,-5.84682E-4,-4.0325698E-2,-2.3228617E-2,-3.8532373E-2,1.2992669E-3,-3.0859262E-2,-1.172225E-3,-8.924801E-3,2.5411343E-4,3.816455E-2,2.9581012E-2,2.7021531E-2,4.6302263E-2,4.644655E-2,3.1110752E-2,4.3184265E-2,-2.756332E-3,-8.409122E-3,4.1766115E-3,3.807876E-4,-3.6401215E-3,2.9412169E-2,3.852891E-2,1.5423812E-3,2.5941864E-2,4.746091E-3,3.5155196E-2,3.281624E-2,1.7961125E-3,1.2893909E-2,-9.047138E-3,3.9026424E-2,1.8804112E-2,-2.8312476E-2,4.2167595E-3,-3.6013097E-2,2.8749848E-2,4.393254E-2,8.830516E-3,-2.486626E-2,3.5377804E-2,4.774117E-2,3.3072628E-2,2.9429445E-2,8.756501E-3,3.7200812E-2,2.8991822E-2,6.703608E-3,3.90552E-2,2.8339047E-2,3.7668146E-2],"split_indices":[1,0,3,3,3,0,5,5,5,4,0,5,0,0,4,4,4,4,4,5,5,4,4,3,0,5,0,0,5,4,3,5,5,4,0,5,5,0,5,4,4,5,5,4,0,3,4,5,3,0,5,0,5,5,5,5,4,4,0,0,0,0,4,4,4,0,5,5,5,5,4,4,0,5,5,0,0,0,0,0,4,0,4,5,3,4,4,0,0,0,0,4,4,5,0,5,5,0,0,5,0,4,4,0,4,0,4,5,5,0,4,5,4,5,5,5,5,4,0,4,0,0,0,0,0,0,0,0,0,0,0,0,0,0,0,0,0,0,0,0,0,0,0,0,0,0,0,0,0,0,0,0,0,0,0,0,0,0,0,0,0,0,0,0,0,0,0,0,0,0,0,0,0,0,0],"split_type":[0,0,0,0,0,0,0,0,0,0,0,0,0,0,0,0,0,0,0,0,0,0,0,0,0,0,0,0,0,0,0,0,0,0,0,0,0,0,0,0,0,0,0,0,0,0,0,0,0,0,0,0,0,0,0,0,0,0,0,0,0,0,0,0,0,0,0,0,0,0,0,0,0,0,0,0,0,0,0,0,0,0,0,0,0,0,0,0,0,0,0,0,0,0,0,0,0,0,0,0,0,0,0,0,0,0,0,0,0,0,0,0,0,0,0,0,0,0,0,0,0,0,0,0,0,0,0,0,0,0,0,0,0,0,0,0,0,0,0,0,0,0,0,0,0,0,0,0,0,0,0,0,0,0,0,0,0,0,0,0,0,0,0,0,0,0,0,0,0,0,0,0,0,0,0],"sum_hessian":[7.343966E3,5.60367E3,1.7402959E3,4.7746772E3,8.289927E2,3.529654E2,1.3873304E3,4.338844E3,4.358329E2,1.732422E2,6.557504E2,2.8133435E2,7.1631035E1,5.199206E2,8.6740985E2,2.53526E3,1.8035842E3,3.4800323E2,8.782966E1,1.1430431E1,1.6181178E2,1.1354532E2,1.6778903E2,4.1115714E2,1.08763466E2,3.323035E2,5.351064E2,1.9782535E3,5.570065E2,8.4887775E2,9.547065E2,1.2776229E1,3.35227E2,4.987076E1,3.7958893E1,6.7164416E0,4.7139893E0,2.2032415E1,1.3977936E2,7.444399E1,3.9101322E1,5.1191654E1,1.1659738E2,3.4275797E2,6.839917E1,2.0650066E2,1.2580283E2,3.5774625E2,1.9926024E2,6.1585944E2,2.3301836E2,1.1880452E2,8.35902E2,9.755509E0,3.020719E0,2.3902803E2,9.619897E1,9.804753E0,4.006601E1,1.3604072E0,5.3560343E0,1.2997273E0,3.414262E0,3.9338515E0,1.358455E2,5.1171646E1,2.327235E1,7.528783E0,3.1572538E1,1.8236778E1,3.2954876E1,1.1546468E2,1.1327006E0,2.6704596E2,7.571202E1,1.6930869E2,3.7191963E1,2.3330414E1,1.0247242E2,2.7639923E2,8.134701E1,2.496404E1,1.742962E2,1.6673738E2,6.6280975E1,3.2550363E2,5.1039835E2,1.2574096E0,8.4981E0,1.9600623E0,1.0606568E0,1.8151712E2,5.751091E1,7.37951E1,2.2403873E1,6.44271E0,3.3620431E0,1.0664821E0,2.34778E0,2.504752E0,1.4290994E0,8.0111664E1,5.573384E1,1.4770824E1,8.501526E0,3.2917964E0,4.236986E0,3.6522684E0,2.792027E1,1.556122E1,2.6755576E0,1.3270565E1,1.968431E1,1.5385569E1,1.0007911E2,9.490709E1,1.7213887E2,7.1849666E0,6.8527054E1,1.3613321E2,3.3175476E1,5.745086E1,2.3896152E1,7.6142105E1,9.81541E1,1.529138E2,1.382357E1,1.1002123E1,5.5278854E1,1.256685E2,1.9983511E2,2.6762205E1,4.8363614E2,1.4866158E2,3.2855556E1,4.952699E1,7.9839215E0,2.0277456E1,5.351764E1,4.4144173E0,2.0282927E0,1.7689228E0,1.5931205E0,1.1447523E0,1.3599997E0,6.3580517E1,1.6531149E1,3.8990824E0,5.183476E1,3.7327943E0,4.7687316E0,3.1036408E0,1.1333455E0,2.5800548E0,1.0722136E0,2.4842892E1,3.0773787E0,1.5698578E0,1.1056997E0,5.8859367E0,7.3846283E0,1.6076452E1,3.6078582E0,2.602289E0,1.2783279E1,2.1080133E1,7.899898E1,8.211407E1,1.2793016E1,7.8013336E1,9.412553E1,5.444132E0,1.740835E0,8.067317E1,5.5460037E1],"tree_param":{"num_deleted":"0","num_feature":"6","num_nodes":"175","size_leaf_vector":"1"}},{"base_weights":[-2.0975737E-2,-4.604669E-1,1.3982421E0,-8.4025764E-1,1.6783386E0,6.125015E-1,1.5970305E0,-1.0576762E0,1.2508535E0,9.684075E-1,5.5893566E-2,2.849693E-1,5.5369772E-2,1.4262838E0,1.7561046E0,-1.2566929E0,-7.4164224E-1,1.1613885E0,1.5965078E0,6.631105E-1,9.932356E-1,-4.1692322E-1,7.9742867E-1,1.2993459E0,1.8206103E0,1.5141964E0,5.650304E-2,-1.3371184E0,-9.25514E-1,-1.2529503E0,-2.9295337E-1,5.6594807E-1,1.1804783E0,1.2568158E0,6.0091052E-2,1.0309769E0,1.04277484E-1,1.0705534E0,8.821911E-1,-1.3054106E0,7.726261E-1,-3.9850014E-1,1.0491478E0,1.1606696E0,5.5222828E-2,4.5329172E-2,5.7382315E-2,1.2940744E0,1.7592176E0,-4.061848E-2,-1.2168252E0,-1.3428595E0,-3.6838692E-1,-4.06148E-2,-9.8532283E-1,-4.1245144E-2,-1.4278546E-1,8.534405E-1,-1.9488277E-2,3.320117E-2,1.3426846E0,7.127011E-1,4.1070238E-2,1.1201669E-2,3.3568487E-2,-1.2946657E-2,2.840187E-1,9.88318E-1,3.733644E-2,9.6739167E-1,6.631323E-1,-4.3366376E-2,-6.6006863E-1,-6.418047E-2,1.124174E0,-4.29423E-2,6.985377E-1,7.3099864E-1,1.1568363E0,1.006909E0,5.681871E-2,1.150348E0,5.5305135E-2,1.2769614E0,5.5037558E-2,-4.10224E-2,-3.604817E-1,-4.166256E-2,-1.0869793E0,-4.018332E-2,-2.1198548E-1,-1.3024966E0,-2.9449347E-1,-3.909795E-1,-9.802507E-3,-8.531338E-3,1.0023263E0,1.1485903E0,5.6666862E-2,9.804351E-1,9.623224E-2,1.553677E-2,1.2689095E-2,3.036866E-2,7.020368E-3,6.774835E-1,1.1087098E0,1.5894268E-1,7.3041457E-1,-4.0979784E-2,1.1072369E0,-1.2267636E0,9.5409685E-1,1.2888978E0,5.5311745E-1,-3.0694925E-3,8.3469945E-1,-3.9497232E-1,1.3273194E0,1.1776145E0,-1.0521689E-2,9.405937E-1,1.2122964E0,9.978719E-1,5.313007E-2,-4.148901E-3,1.3835473E0,-3.5969354E-2,-4.7898036E-3,-4.040605E-2,-2.570579E-4,-1.3580205E-2,-1.8348072E-3,-4.0142234E-2,-2.6216045E-2,-3.8281675E-2,-2.3529956E-3,-3.0812286E-2,-3.2372307E-3,-8.529858E-3,1.6098769E-4,3.710272E-2,1.874903E-2,4.309279E-2,2.957894E-2,3.680695E-2,-2.306531E-3,-5.0964025E-3,1.3420142E-2,-2.1589356E-2,1.5714463E-2,1.6038584E-2,3.4629785E-2,3.667834E-2,2.434541E-2,2.1648971E-2,-1.0267232E-2,1.675187E-2,2.7143223E-2,4.0064536E-2,1.0028947E-2,-3.9386522E-2,-1.1460681E-2,-7.9642463E-4,3.377279E-2,2.2427553E-2,4.47572E-2,1.0023477E-2,2.4190256E-2,-3.65991E-4,2.7680308E-2,-3.949143E-2,7.935283E-3,4.2287372E-2,3.31387E-3,4.7143698E-2,3.1948432E-2,3.2375716E-2,2.6075728E-2,2.020117E-2,5.036808E-2,2.2721479E-2,3.5229232E-2,1.8470507E-2,4.4056825E-2],"categories":[],"categories_nodes":[],"categories_segments":[],"categories_sizes":[],"default_left":[0,0,0,0,0,0,0,0,0,0,0,0,0,0,0,0,0,0,0,0,0,0,0,0,0,0,0,0,0,0,0,0,0,0,0,0,0,0,0,0,0,0,0,0,0,0,0,0,0,0,0,0,0,0,0,0,0,0,0,0,0,0,0,0,0,0,0,0,0,0,0,0,0,0,0,0,0,0,0,0,0,0,0,0,0,0,0,0,0,0,0,0,0,0,0,0,0,0,0,0,0,0,0,0,0,0,0,0,0,0,0,0,0,0,0,0,0,0,0,0,0,0,0,0,0,0,0,0,0,0,0,0,0,0,0,0,0,0,0,0,0,0,0,0,0,0,0,0,0,0,0,0,0,0,0,0,0,0,0,0,0,0,0,0,0,0,0,0,0,0,0,0,0,0,0,0,0,0,0,0,0,0,0,0,0],"id":11,"left_children":[1,3,5,7,9,11,13,15,17,19,-1,21,-1,23,25,27,29,31,33,35,37,39,41,43,45,47,-1,49,51,53,55,57,59,61,-1,63,65,67,69,71,73,75,77,79,-1,-1,-1,81,83,-1,85,87,89,-1,91,-1,93,95,-1,-1,97,99,-1,-1,-1,-1,101,103,-1,105,107,-1,109,111,113,-1,115,117,119,121,-1,123,-1,125,-1,-1,127,-1,129,-1,131,133,135,137,139,-1,141,143,-1,145,147,-1,149,-1,-1,151,153,155,157,-1,159,161,163,165,167,-1,169,171,173,175,-1,177,179,181,-1,-1,183,-1,-1,-1,-1,-1,-1,-1,-1,-1,-1,-1,-1,-1,-1,-1,-1,-1,-1,-1,-1,-1,-1,-1,-1,-1,-1,-1,-1,-1,-1,-1,-1,-1,-1,-1,-1,-1,-1,-1,-1,-1,-1,-1,-1,-1,-1,-1,-1,-1,-1,-1,-1,-1,-1,-1,-1,-1,-1],"loss_changes":[4.5596943E3,4.535468E3,2.69011E2,2.1566787E3,1.08654785E2,1.4109422E2,3.4947998E1,2.6919336E2,1.1967102E1,6.753082E-1,0E0,1.00409515E2,0E0,3.118982E1,1.900293E1,6.891504E1,3.8091565E2,3.4093933E0,9.8042755E0,3.2318754E0,4.3563843E-1,1.2579727E2,4.8933327E1,3.6201233E1,1.6959839E0,1.1195068E1,0E0,2.6381836E0,1.1992139E2,1.962854E1,1.4382605E2,5.1198387E0,2.662201E0,2.1555405E0,0E0,1.4236832E-1,8.507623E-1,5.885315E-2,6.9599915E-1,5.1918106E0,1.5107727E1,3.3574787E1,3.7251892E0,4.4230957E1,0E0,0E0,0E0,8.568039E0,1.8524475E0,0E0,3.428784E1,1.9629517E0,3.3611103E1,0E0,4.6994934E1,0E0,2.5725761E1,2.1480722E0,0E0,0E0,8.822418E0,1.697145E0,0E0,0E0,0E0,0E0,3.9096987E-1,9.569168E-1,0E0,1.2733994E0,6.725111E-1,0E0,1.8934893E1,2.018977E1,2.677681E0,0E0,1.6788874E0,2.500144E1,3.4814758E0,3.4961853E0,0E0,8.637787E0,0E0,3.0408516E0,0E0,0E0,6.829325E0,0E0,1.3881943E1,0E0,6.9933186E0,1.0861206E0,1.460313E1,4.885506E1,2.1195009E0,0E0,1.0693455E-1,2.2840195E0,0E0,2.038021E0,4.8667908E-1,0E0,1.8462455E0,0E0,0E0,6.61232E-1,7.924271E-2,1.379276E0,1.01594925E-1,0E0,3.5419703E-1,7.599926E-2,1.5663261E0,1.8762856E0,2.7524304E-1,0E0,9.499607E-1,8.486271E0,2.2528725E0,2.624237E0,0E0,1.6526489E0,1.8893158E1,2.9529724E0,0E0,0E0,2.4852371E-1,0E0,0E0,0E0,0E0,0E0,0E0,0E0,0E0,0E0,0E0,0E0,0E0,0E0,0E0,0E0,0E0,0E0,0E0,0E0,0E0,0E0,0E0,0E0,0E0,0E0,0E0,0E0,0E0,0E0,0E0,0E0,0E0,0E0,0E0,0E0,0E0,0E0,0E0,0E0,0E0,0E0,0E0,0E0,0E0,0E0,0E0,0E0,0E0,0E0,0E0,0E0,0E0,0E0,0E0,0E0,0E0,0E0,0E0],"parents":[2147483647,0,0,1,1,2,2,3,3,4,4,5,5,6,6,7,7,8,8,9,9,11,11,13,13,14,14,15,15,16,16,17,17,18,18,19,19,20,20,21,21,22,22,23,23,24,24,25,25,27,27,28,28,29,29,30,30,31,31,32,32,33,33,35,35,36,36,37,37,38,38,39,39,40,40,41,41,42,42,43,43,47,47,48,48,50,50,51,51,52,52,54,54,56,56,57,57,60,60,61,61,66,66,67,67,69,69,70,70,72,72,73,73,74,74,76,76,77,77,78,78,79,79,81,81,83,83,86,86,88,88,90,90,91,91,92,92,93,93,94,94,96,96,97,97,99,99,100,100,102,102,105,105,106,106,107,107,108,108,110,110,111,111,112,112,113,113,114,114,116,116,117,117,118,118,119,119,121,121,122,122,123,123,126,126],"right_children":[2,4,6,8,10,12,14,16,18,20,-1,22,-1,24,26,28,30,32,34,36,38,40,42,44,46,48,-1,50,52,54,56,58,60,62,-1,64,66,68,70,72,74,76,78,80,-1,-1,-1,82,84,-1,86,88,90,-1,92,-1,94,96,-1,-1,98,100,-1,-1,-1,-1,102,104,-1,106,108,-1,110,112,114,-1,116,118,120,122,-1,124,-1,126,-1,-1,128,-1,130,-1,132,134,136,138,140,-1,142,144,-1,146,148,-1,150,-1,-1,152,154,156,158,-1,160,162,164,166,168,-1,170,172,174,176,-1,178,180,182,-1,-1,184,-1,-1,-1,-1,-1,-1,-1,-1,-1,-1,-1,-1,-1,-1,-1,-1,-1,-1,-1,-1,-1,-1,-1,-1,-1,-1,-1,-1,-1,-1,-1,-1,-1,-1,-1,-1,-1,-1,-1,-1,-1,-1,-1,-1,-1,-1,-1,-1,-1,-1,-1,-1,-1,-1,-1,-1,-1,-1],"split_conditions":[1E0,1E0,2E0,3E0,2E0,1E0,6E-1,6.232465E-1,8.056112E-1,2.8E-1,5.5893566E-2,5.6E-1,5.5369772E-2,7.55511E-1,3.507014E-1,8.6E-1,6E-1,2.4E-1,6.8E-1,5.4709417E-1,7E-1,6.1523044E-1,1.8637274E-1,1E0,3E-1,8.2E-1,5.650304E-2,7.8E-1,3.6072144E-1,5E-1,2E0,5.8717436E-1,5.7114226E-1,3.2E-1,6.0091052E-2,1.0821643E-1,6.232465E-1,7.55511E-1,7.1943885E-1,4.98998E-1,3.2E-1,7.8E-1,3.9278555E-1,3E0,5.5222828E-2,4.5329172E-2,5.7382315E-2,3E0,5.4108214E-2,-4.061848E-2,5.2104205E-1,3.026052E-1,2E0,-4.06148E-2,8.9378756E-1,-4.1245144E-2,7.6753503E-1,9.418838E-2,-1.9488277E-2,3.320117E-2,8E-1,2.8E-1,4.1070238E-2,1.1201669E-2,3.3568487E-2,-1.2946657E-2,8.1763524E-1,7.4348694E-1,3.733644E-2,8.2E-1,7.855711E-1,-4.3366376E-2,4.6E-1,8.1362724E-1,9.198397E-1,-4.29423E-2,8.4E-1,7E-1,9.9198395E-1,5.6713426E-1,5.681871E-2,1E0,5.5305135E-2,8.4E-1,5.5037558E-2,-4.10224E-2,2E0,-4.166256E-2,9.8E-1,-4.018332E-2,9.2E-1,8.7174344E-1,2E0,7.4E-1,6.2E-1,-8.531338E-3,3.1462926E-1,6.4529055E-1,5.6666862E-2,9.579158E-1,3E-1,1.553677E-2,8.9378756E-1,3.036866E-2,7.020368E-3,5.8717436E-1,9.4E-1,8E-1,9.318637E-1,-4.0979784E-2,5.6713426E-1,7.855711E-1,2.4E-1,7.0941883E-1,4.8E-1,-3.0694925E-3,1.4028056E-2,2.9058117E-1,3.7274548E-1,5.1703405E-1,-1.0521689E-2,3.4E-1,4E-1,7E-1,5.313007E-2,-4.148901E-3,6.012024E-3,-3.5969354E-2,-4.7898036E-3,-4.040605E-2,-2.570579E-4,-1.3580205E-2,-1.8348072E-3,-4.0142234E-2,-2.6216045E-2,-3.8281675E-2,-2.3529956E-3,-3.0812286E-2,-3.2372307E-3,-8.529858E-3,1.6098769E-4,3.710272E-2,1.874903E-2,4.309279E-2,2.957894E-2,3.680695E-2,-2.306531E-3,-5.0964025E-3,1.3420142E-2,-2.1589356E-2,1.5714463E-2,1.6038584E-2,3.4629785E-2,3.667834E-2,2.434541E-2,2.1648971E-2,-1.0267232E-2,1.675187E-2,2.7143223E-2,4.0064536E-2,1.0028947E-2,-3.9386522E-2,-1.1460681E-2,-7.9642463E-4,3.377279E-2,2.2427553E-2,4.47572E-2,1.0023477E-2,2.4190256E-2,-3.65991E-4,2.7680308E-2,-3.949143E-2,7.935283E-3,4.2287372E-2,3.31387E-3,4.7143698E-2,3.1948432E-2,3.2375716E-2,2.6075728E-2,2.020117E-2,5.036808E-2,2.2721479E-2,3.5229232E-2,1.8470507E-2,4.4056825E-2],"split_indices":[1,0,3,3,3,0,4,5,5,4,0,4,0,5,5,4,4,4,4,5,4,5,5,0,4,4,0,4,5,4,3,5,5,4,0,5,5,5,5,5,4,4,5,3,0,0,0,3,5,0,5,5,3,0,5,0,5,5,0,0,4,4,0,0,0,0,5,5,0,4,5,0,4,5,5,0,4,4,5,5,0,0,0,4,0,0,3,0,4,0,4,5,3,4,4,0,5,5,0,5,4,0,5,0,0,5,4,4,5,0,5,5,4,5,4,0,5,5,5,5,0,4,4,4,0,0,5,0,0,0,0,0,0,0,0,0,0,0,0,0,0,0,0,0,0,0,0,0,0,0,0,0,0,0,0,0,0,0,0,0,0,0,0,0,0,0,0,0,0,0,0,0,0,0,0,0,0,0,0,0,0,0,0,0,0],"split_type":[0,0,0,0,0,0,0,0,0,0,0,0,0,0,0,0,0,0,0,0,0,0,0,0,0,0,0,0,0,0,0,0,0,0,0,0,0,0,0,0,0,0,0,0,0,0,0,0,0,0,0,0,0,0,0,0,0,0,0,0,0,0,0,0,0,0,0,0,0,0,0,0,0,0,0,0,0,0,0,0,0,0,0,0,0,0,0,0,0,0,0,0,0,0,0,0,0,0,0,0,0,0,0,0,0,0,0,0,0,0,0,0,0,0,0,0,0,0,0,0,0,0,0,0,0,0,0,0,0,0,0,0,0,0,0,0,0,0,0,0,0,0,0,0,0,0,0,0,0,0,0,0,0,0,0,0,0,0,0,0,0,0,0,0,0,0,0,0,0,0,0,0,0,0,0,0,0,0,0,0,0,0,0,0,0],"sum_hessian":[7.3082896E3,5.5807627E3,1.727527E3,4.7397295E3,8.410334E2,3.496328E2,1.3778942E3,4.2937866E3,4.4594266E2,1.7498332E2,6.6605005E2,2.7723032E2,7.240252E1,6.693714E2,7.0852277E2,2.632832E3,1.6609545E3,3.5771576E2,8.822689E1,1.5244041E1,1.5973929E2,1.1707052E2,1.6015979E2,5.0961572E2,1.5975569E2,2.4877646E2,4.597463E2,2.1159456E3,5.1688654E2,7.754687E2,8.8548584E2,1.2064126E1,3.4565164E2,5.029349E1,3.79334E1,8.683215E0,6.560827E0,8.907652E1,7.0662766E1,6.695998E1,5.0110542E1,2.7747423E1,1.3241237E2,4.0820358E2,1.0141215E2,4.0625034E1,1.1913065E2,1.3435564E2,1.14420815E2,1.8472335E3,2.687121E2,2.947089E2,2.2217764E2,5.602399E2,2.1522874E2,1.0693284E2,7.78553E2,9.997509E0,2.066617E0,2.4296999E2,1.02681656E2,9.854278E0,4.0439213E1,1.6433908E0,7.0398245E0,1.2960742E0,5.2647524E0,6.5024185E1,2.4052334E1,4.8415833E1,2.2246931E1,5.399505E1,1.2964929E1,1.5065894E1,3.5044647E1,1.4134432E1,1.3612991E1,3.5454773E1,9.6957596E1,3.3940747E2,6.87961E1,1.0894914E2,2.5406498E1,1.7890125E1,9.653069E1,2.2801825E2,4.0693844E1,2.4613658E2,4.8572315E1,2.9771265E1,1.9240639E2,1.4689903E2,6.832972E1,2.709405E2,5.076125E2,1.0515192E0,8.94599E0,7.804974E1,2.4631908E1,6.4588E0,3.3954778E0,2.339495E0,2.9252574E0,6.2689983E1,2.334206E0,1.7765238E1,3.0650595E1,3.0151064E0,1.9231825E1,9.426663E0,3.5382655E0,6.9389E0,8.126995E0,2.6223362E1,8.821286E0,2.014281E0,1.159871E1,1.2392654E1,2.3062119E1,9.5855316E1,1.1022793E0,2.6078506E2,7.862242E1,8.955576E1,1.9393383E1,1.2321395E0,1.6657986E1,6.9026446E0,3.37912E1,3.8939297E1,9.6330185E0,7.3351006E1,1.1905538E2,1.3368115E2,1.3217884E1,1.1442118E1,5.6887596E1,8.2630775E1,1.8830971E2,2.5650072E1,4.8196243E2,4.1132555E0,4.832734E0,2.5349743E1,5.27E1,5.10778E0,1.3510197E0,2.2251415E0,1.1703362E0,1.034739E0,1.8905185E0,1.5301891E1,2.463346E0,1.990724E1,1.0743355E1,1.2131834E0,1.801923E0,1.1796369E1,7.4354563E0,2.169742E0,1.3685232E0,5.794019E0,1.1448807E0,1.3366379E0,6.7903566E0,8.42938E0,1.7793982E1,5.9740577E0,2.847228E0,1.1725645E0,1.0426146E1,4.754175E0,7.638479E0,2.1453484E1,1.6086341E0,1.8441753E1,7.741356E1,8.387153E1,1.7691353E2,3.7619064E1,4.1003357E1,4.013831E1,4.9417454E1,2.482013E0,1.4175972E1],"tree_param":{"num_deleted":"0","num_feature":"6","num_nodes":"185","size_leaf_vector":"1"}},{"base_weights":[-8.704015E-3,-8.4762555E-1,7.565257E-1,-1.1037866E0,1.3671255E0,3.1316963E-1,1.6667392E0,-1.3090382E0,2.792803E-1,1.188031E0,5.3950176E-2,-1.3844338E-1,5.4655023E-2,1.524231E0,1.7724146E0,-3.9878864E-2,-1.2733241E0,-3.7750465E-1,8.0432314E-1,3.328326E-3,3.5825286E-2,-5.9839994E-1,5.172873E-1,1.3611968E0,5.2787617E-2,1.5839368E0,5.4633394E-2,-3.9801627E-2,-1.19084E0,-7.9027003E-1,8.064262E-1,2.0378634E-2,1.2994497E0,-7.2160125E-1,2.5720477E-1,-5.4331857E-1,1.4185487E0,3.7801772E-2,5.3532586E-2,1.3531997E0,5.471153E-2,-3.59857E-2,-2.4909224E-2,-9.6737784E-1,-2.0161813E-1,-7.7482516E-1,1.0531737E0,-1.0326548E0,7.362782E-1,1.3993229E0,1.1180527E0,-7.93946E-1,-4.5245492E-1,-7.585396E-1,1.5376905E0,-7.1998453E-1,5.541668E-2,1.0135475E0,1.6686327E0,1.2476767E0,5.115299E-2,-4.0350708E-1,-9.794516E-1,-8.8509446E-1,1.1711677E0,-2.8125485E-2,1.6142956E-4,3.5927612E-1,1.1543032E0,-1.2124505E0,-5.911129E-1,-3.7427925E-2,1.0023594E0,1.2418684E0,4.755327E-2,3.794906E-2,5.7895863E-1,-7.304937E-1,-8.8179755E-1,-7.221893E-1,1.3492068E0,-8.889013E-1,-6.629853E-2,5.855963E-1,1.6694291E0,2.7856114E-4,-7.4014455E-1,-6.394871E-1,1.3652451E0,-2.2985736E-1,1.5814713E0,1.769036E0,1.5169723E0,1.2968642E0,6.716539E-1,-1.4889693E-2,-4.0993937E-3,-3.7321113E-2,-2.770728E-2,-1.7731316E-2,-3.5221007E-2,1.2336861E-2,4.0678542E-2,-1.1505016E-2,3.58961E-2,3.6820598E-2,1.2494125E-2,-1.8379904E-2,-3.8602624E-2,-2.4370981E-2,2.3197858E-2,-1.8383345E-2,2.9653393E-2,7.535754E-3,3.5520818E-2,1.39251575E-2,3.9027046E-2,-2.6431156E-3,2.0829733E-2,-2.5059594E-2,-2.1231953E-2,-2.7404541E-2,-2.041256E-2,-2.2574477E-2,3.6785007E-3,2.5142005E-2,5.1938895E-2,-3.3743802E-2,-2.4288006E-2,-2.4696141E-2,3.0319022E-2,-2.388686E-2,3.4117516E-2,5.1360853E-2,5.4688547E-3,1.1144223E-2,-9.736114E-3,-2.4594821E-2,-1.616771E-2,-2.250583E-2,-4.230407E-3,2.3284378E-2,5.3695302E-2,-2.8598469E-2,9.0991985E-3,2.4141468E-2,4.8718035E-2,3.857906E-2,5.40278E-2,2.911409E-2,4.7248296E-2,3.938781E-2,8.580308E-3,-5.152695E-3,3.5216186E-2],"categories":[],"categories_nodes":[],"categories_segments":[],"categories_sizes":[],"default_left":[0,0,0,0,0,0,0,0,0,0,0,0,0,0,0,0,0,0,0,0,0,0,0,0,0,0,0,0,0,0,0,0,0,0,0,0,0,0,0,0,0,0,0,0,0,0,0,0,0,0,0,0,0,0,0,0,0,0,0,0,0,0,0,0,0,0,0,0,0,0,0,0,0,0,0,0,0,0,0,0,0,0,0,0,0,0,0,0,0,0,0,0,0,0,0,0,0,0,0,0,0,0,0,0,0,0,0,0,0,0,0,0,0,0,0,0,0,0,0,0,0,0,0,0,0,0,0,0,0,0,0,0,0,0,0,0,0,0,0,0,0,0,0,0,0,0,0,0,0,0,0,0,0,0,0],"id":12,"left_children":[1,3,5,7,9,11,13,15,17,19,-1,21,-1,23,25,-1,27,29,31,-1,-1,33,35,37,-1,39,-1,-1,41,43,45,47,49,51,53,55,57,-1,-1,59,-1,-1,-1,61,63,65,67,69,71,73,75,77,79,81,83,85,87,89,91,93,-1,95,97,99,101,-1,-1,103,105,107,109,111,113,115,-1,-1,117,119,121,123,125,127,129,131,133,135,137,139,141,143,145,147,149,151,153,-1,-1,-1,-1,-1,-1,-1,-1,-1,-1,-1,-1,-1,-1,-1,-1,-1,-1,-1,-1,-1,-1,-1,-1,-1,-1,-1,-1,-1,-1,-1,-1,-1,-1,-1,-1,-1,-1,-1,-1,-1,-1,-1,-1,-1,-1,-1,-1,-1,-1,-1,-1,-1,-1,-1,-1,-1,-1,-1,-1],"loss_changes":[4.6449985E3,1.959706E3,1.5264995E3,8.7876685E2,2.553241E1,1.7347793E3,1.5959961E1,2.5683594E-1,1.3847705E2,1.5625305E0,0E0,5.9152435E2,0E0,1.8125122E1,3.590332E0,0E0,2.8199463E0,8.796137E1,8.6530014E1,0E0,0E0,1.2167804E2,7.737544E2,1.1463684E1,0E0,5.9704285E0,0E0,0E0,2.635498E-1,1.3671143E1,1.9032623E1,6.6601166E1,9.1130066E-1,1.926294E1,1.9081082E2,3.9411133E1,4.2615234E1,0E0,0E0,9.0270996E-1,0E0,0E0,0E0,2.9904938E-1,3.1084278E1,8.7812614E-1,2.4491158E0,2.122387E0,1.0861111E1,4.934082E-1,3.5048904E0,3.77594E0,1.0585419E2,7.3389893E0,7.153702E0,4.1745605E0,7.890745E1,1.2008989E2,1.4110107E0,1.0132294E0,0E0,2.7252316E-2,3.1671143E-1,1.1709957E0,9.975996E-1,0E0,0E0,4.5902104E0,1.3843231E0,3.01857E-1,4.341161E0,9.115728E0,5.046097E0,1.699501E0,0E0,0E0,1.0848022E0,5.212555E-1,1.4695587E0,4.9128494E0,4.105732E0,3.78376E-1,1.2302717E1,8.08641E0,3.261444E0,1.1848347E0,4.0420837E0,3.0229626E0,6.123913E0,2.1129692E1,2.5361938E0,8.380127E-2,2.0873108E0,6.019211E-1,3.2964354E0,0E0,0E0,0E0,0E0,0E0,0E0,0E0,0E0,0E0,0E0,0E0,0E0,0E0,0E0,0E0,0E0,0E0,0E0,0E0,0E0,0E0,0E0,0E0,0E0,0E0,0E0,0E0,0E0,0E0,0E0,0E0,0E0,0E0,0E0,0E0,0E0,0E0,0E0,0E0,0E0,0E0,0E0,0E0,0E0,0E0,0E0,0E0,0E0,0E0,0E0,0E0,0E0,0E0,0E0,0E0,0E0,0E0,0E0,0E0,0E0],"parents":[2147483647,0,0,1,1,2,2,3,3,4,4,5,5,6,6,7,7,8,8,9,9,11,11,13,13,14,14,16,16,17,17,18,18,21,21,22,22,23,23,25,25,28,28,29,29,30,30,31,31,32,32,33,33,34,34,35,35,36,36,39,39,43,43,44,44,45,45,46,46,47,47,48,48,49,49,50,50,51,51,52,52,53,53,54,54,55,55,56,56,57,57,58,58,59,59,61,61,62,62,63,63,64,64,67,67,68,68,69,69,70,70,71,71,72,72,73,73,76,76,77,77,78,78,79,79,80,80,81,81,82,82,83,83,84,84,85,85,86,86,87,87,88,88,89,89,90,90,91,91,92,92,93,93,94,94],"right_children":[2,4,6,8,10,12,14,16,18,20,-1,22,-1,24,26,-1,28,30,32,-1,-1,34,36,38,-1,40,-1,-1,42,44,46,48,50,52,54,56,58,-1,-1,60,-1,-1,-1,62,64,66,68,70,72,74,76,78,80,82,84,86,88,90,92,94,-1,96,98,100,102,-1,-1,104,106,108,110,112,114,116,-1,-1,118,120,122,124,126,128,130,132,134,136,138,140,142,144,146,148,150,152,154,-1,-1,-1,-1,-1,-1,-1,-1,-1,-1,-1,-1,-1,-1,-1,-1,-1,-1,-1,-1,-1,-1,-1,-1,-1,-1,-1,-1,-1,-1,-1,-1,-1,-1,-1,-1,-1,-1,-1,-1,-1,-1,-1,-1,-1,-1,-1,-1,-1,-1,-1,-1,-1,-1,-1,-1,-1,-1,-1,-1],"split_conditions":[1E0,1E0,1E0,1E0,1E0,1E0,4.268537E-1,7.2E-1,5.8E-1,2.2E-1,5.3950176E-2,5.991984E-1,5.4655023E-2,6.8E-1,3.8E-1,-3.9878864E-2,6.272545E-1,7.4348694E-1,3.9278555E-1,3.328326E-3,3.5825286E-2,9.2E-1,6E-1,1E0,5.2787617E-2,7.5951904E-1,5.4633394E-2,-3.9801627E-2,9.9198395E-1,5.831663E-1,2.6E-1,7.6E-1,8.4E-1,4.7294587E-1,3.4268537E-1,5.2E-1,7.6753503E-1,3.7801772E-2,5.3532586E-2,1E0,5.471153E-2,-3.59857E-2,-2.4909224E-2,1.4028056E-2,4.6E-1,9.278557E-1,3E-1,7E-1,1.1623246E-1,7.755511E-1,8.456914E-1,6.4E-1,8.2E-1,2.8256512E-1,3.807615E-1,6.1122245E-1,8.6773545E-1,7.4E-1,8.4E-1,3.6E-1,5.115299E-2,4.8E-1,9.018036E-2,6.6533065E-1,6.1122245E-1,-2.8125485E-2,1.6142956E-4,9.318637E-1,9.759519E-1,6E-1,3.3466932E-1,9.4E-1,8E-1,6E-1,4.755327E-2,3.794906E-2,8.6773545E-1,2.8E-1,4.008016E-1,8E-1,5.250501E-1,9.4E-1,9.8E-1,9.4E-1,5.9118235E-1,3.8E-1,4.4E-1,8.216433E-1,9.238477E-1,6.6E-1,7.6E-1,6.2E-1,8.6E-1,7.51503E-1,5.551102E-1,-1.4889693E-2,-4.0993937E-3,-3.7321113E-2,-2.770728E-2,-1.7731316E-2,-3.5221007E-2,1.2336861E-2,4.0678542E-2,-1.1505016E-2,3.58961E-2,3.6820598E-2,1.2494125E-2,-1.8379904E-2,-3.8602624E-2,-2.4370981E-2,2.3197858E-2,-1.8383345E-2,2.9653393E-2,7.535754E-3,3.5520818E-2,1.39251575E-2,3.9027046E-2,-2.6431156E-3,2.0829733E-2,-2.5059594E-2,-2.1231953E-2,-2.7404541E-2,-2.041256E-2,-2.2574477E-2,3.6785007E-3,2.5142005E-2,5.1938895E-2,-3.3743802E-2,-2.4288006E-2,-2.4696141E-2,3.0319022E-2,-2.388686E-2,3.4117516E-2,5.1360853E-2,5.4688547E-3,1.1144223E-2,-9.736114E-3,-2.4594821E-2,-1.616771E-2,-2.250583E-2,-4.230407E-3,2.3284378E-2,5.3695302E-2,-2.8598469E-2,9.0991985E-3,2.4141468E-2,4.8718035E-2,3.857906E-2,5.40278E-2,2.911409E-2,4.7248296E-2,3.938781E-2,8.580308E-3,-5.152695E-3,3.5216186E-2],"split_indices":[2,0,1,1,1,0,5,4,4,4,0,5,0,4,4,0,5,5,5,0,0,4,4,0,0,5,0,0,5,5,4,4,4,5,5,4,5,0,0,0,0,0,0,5,4,5,4,4,5,5,5,4,4,5,5,5,5,4,4,4,0,4,5,5,5,0,0,5,5,4,5,4,4,4,0,0,5,4,5,4,5,4,4,4,5,4,4,5,5,4,4,4,4,5,5,0,0,0,0,0,0,0,0,0,0,0,0,0,0,0,0,0,0,0,0,0,0,0,0,0,0,0,0,0,0,0,0,0,0,0,0,0,0,0,0,0,0,0,0,0,0,0,0,0,0,0,0,0,0,0,0,0,0,0,0],"split_type":[0,0,0,0,0,0,0,0,0,0,0,0,0,0,0,0,0,0,0,0,0,0,0,0,0,0,0,0,0,0,0,0,0,0,0,0,0,0,0,0,0,0,0,0,0,0,0,0,0,0,0,0,0,0,0,0,0,0,0,0,0,0,0,0,0,0,0,0,0,0,0,0,0,0,0,0,0,0,0,0,0,0,0,0,0,0,0,0,0,0,0,0,0,0,0,0,0,0,0,0,0,0,0,0,0,0,0,0,0,0,0,0,0,0,0,0,0,0,0,0,0,0,0,0,0,0,0,0,0,0,0,0,0,0,0,0,0,0,0,0,0,0,0,0,0,0,0,0,0,0,0,0,0,0,0],"sum_hessian":[7.2335654E3,3.450583E3,3.7829827E3,3.0933083E3,3.572746E2,2.5447864E3,1.2381963E3,2.69362E3,3.9968823E2,2.5508577E2,1.0218882E2,1.9592118E3,5.855744E2,5.337848E2,7.044115E2,1.6956246E3,9.979955E2,1.7769168E2,2.2199654E2,1.5552088E0,2.5353055E2,1.1515527E3,8.076592E2,3.193504E2,2.1443439E2,1.5151831E2,5.528932E2,5.966583E2,4.013372E2,1.3200276E2,4.568891E1,8.633758E1,1.3565897E2,1.0067449E3,1.4480785E2,3.7121268E2,4.364465E2,2.6096487E2,5.8385525E1,8.060088E1,7.091742E1,3.8962607E2,1.1711132E1,1.0097809E2,3.1024677E1,5.87831E0,3.9810604E1,3.4762356E1,5.1575222E1,8.315924E1,5.2499725E1,7.9192957E2,2.1481529E2,8.097896E1,6.3828884E1,2.864799E2,8.473279E1,1.685459E2,2.679006E2,6.550399E1,1.50969E1,2.8384027E0,9.813969E1,2.0949629E1,1.0075048E1,4.6972075E0,1.1811029E0,5.643117E0,3.4167484E1,2.346249E1,1.1299867E1,1.3417987E1,3.8157234E1,4.917103E1,3.398821E1,4.0198273E1,1.2301455E1,4.6522684E2,3.2670273E2,1.8736346E2,2.7451822E1,6.790678E1,1.3072185E1,8.420171E0,5.5408714E1,7.8270407E0,2.7865283E2,5.5696095E1,2.9036692E1,5.3032494E1,1.1551341E2,1.547725E2,1.1312808E2,5.91976E1,6.306386E0,1.4679725E0,1.3704304E0,1.3403964E1,8.4735725E1,1.1892406E1,9.057222E0,2.6015215E0,7.4735265E0,3.2774663E0,2.3656504E0,3.0485739E1,3.681747E0,3.6053245E0,1.9857166E1,1.0071254E1,1.2286128E0,8.854638E0,4.5633483E0,7.895074E0,3.0262161E1,4.094425E0,4.5076603E1,1.8486416E0,1.0452813E1,7.6628746E1,3.8859808E2,2.7922955E2,4.747318E1,1.8098302E2,6.380455E0,1.3108851E1,1.4342972E1,1.376803E1,5.4138744E1,7.815076E0,5.257108E0,2.2759223E0,6.1442485E0,5.3718693E1,1.6900185E0,3.5856998E0,4.2413406E0,1.9740633E2,8.124652E1,4.516116E1,1.0534935E1,1.3346856E1,1.5689836E1,2.216707E1,3.0865423E1,7.021625E0,1.0849178E2,1.2144003E1,1.4262851E2,1.2550743E1,1.0057734E2,5.797749E1,1.2201122E0,2.5992663E0,3.7071197E0],